{"learner":{"attributes":{"scikit_learn":"{\"_estimator_type\": \"regressor\"}"},"feature_names":["price_area","hour","day_of_week","month","is_weekend","price_lag_1h","price_lag_24h","price_rolling_mean_4h","price_rolling_std_4h","price_rolling_mean_12h","price_rolling_std_12h","price_rolling_mean_24h","price_rolling_std_24h"],"feature_types":["c","int","int","int","int","float","float","float","float","float","float","float","float"],"gradient_booster":{"model":{"cats":{"enc":[{"offsets":[0,3,6],"values":[68,75,49,68,75,50]},{"offsets":[],"values":[]},{"offsets":[],"values":[]},{"offsets":[],"values":[]},{"offsets":[],"values":[]},{"offsets":[],"values":[]},{"offsets":[],"values":[]},{"offsets":[],"values":[]},{"offsets":[],"values":[]},{"offsets":[],"values":[]},{"offsets":[],"values":[]},{"offsets":[],"values":[]},{"offsets":[],"values":[]}],"feature_segments":[0,2,2,2,2,2,2,2,2,2,2,2,2,2],"sorted_idx":[0,1]},"gbtree_model_param":{"num_parallel_tree":"1","num_trees":"150"},"iteration_indptr":[0,1,2,3,4,5,6,7,8,9,10,11,12,13,14,15,16,17,18,19,20,21,22,23,24,25,26,27,28,29,30,31,32,33,34,35,36,37,38,39,40,41,42,43,44,45,46,47,48,49,50,51,52,53,54,55,56,57,58,59,60,61,62,63,64,65,66,67,68,69,70,71,72,73,74,75,76,77,78,79,80,81,82,83,84,85,86,87,88,89,90,91,92,93,94,95,96,97,98,99,100,101,102,103,104,105,106,107,108,109,110,111,112,113,114,115,116,117,118,119,120,121,122,123,124,125,126,127,128,129,130,131,132,133,134,135,136,137,138,139,140,141,142,143,144,145,146,147,148,149,150],"tree_info":[0,0,0,0,0,0,0,0,0,0,0,0,0,0,0,0,0,0,0,0,0,0,0,0,0,0,0,0,0,0,0,0,0,0,0,0,0,0,0,0,0,0,0,0,0,0,0,0,0,0,0,0,0,0,0,0,0,0,0,0,0,0,0,0,0,0,0,0,0,0,0,0,0,0,0,0,0,0,0,0,0,0,0,0,0,0,0,0,0,0,0,0,0,0,0,0,0,0,0,0,0,0,0,0,0,0,0,0,0,0,0,0,0,0,0,0,0,0,0,0,0,0,0,0,0,0,0,0,0,0,0,0,0,0,0,0,0,0,0,0,0,0,0,0,0,0,0,0,0,0],"trees":[{"base_weights":[2.2327622E-5,-2.36447E2,2.4783951E2,-3.6466742E2,-1.17554794E2,1.3012985E2,3.6331104E2,-4.2598474E2,-3.033559E2,-1.8253105E2,-5.2273808E1,6.746816E1,1.9512505E2,3.3526303E2,6.152449E2,-2.2705524E1,-1.9608719E1,-1.6667936E1,-1.3552073E1,-1.7425931E2,-3.19374E2,-8.792705E1,-1.5966581E1,3.3066563E1,9.812991E1,1.6510362E2,2.3421822E2,2.818469E2,3.8126318E2,2.4445517E1,7.28337E2,-2.0436256E2,-1.334486E2,-1.6615782E1,-3.9592938E0,-7.2810974E1,-1.1187396E2,-2.1973408E1,7.961368E0,3.866949E1,-1.13114815E2,8.1357765E1,5.68444E0,7.286274E0,9.007698E0,1.1049891E1,3.43593E2,2.5712314E2,1.5237775E1,3.5389935E2,2.0610426E1,2.6206573E1,3.833033E1,-1.1031352E1,-9.20798E0,-7.1019297E0,8.909177E-1,-4.116046E0,-3.053438E0,-5.291187E0,-1.1190722E1,-9.842594E-1,-1.1677761E1,1.118193E0,2.6498864E0,-6.4270096E0,6.428391E-1,3.598273E0,4.3945193E0,6.9128227E0,1.782826E1,1.3054778E1,5.6877637E0,1.2963405E1,1.788731E1],"categories":[],"categories_nodes":[],"categories_segments":[],"categories_sizes":[],"default_left":[0,0,0,0,0,0,0,0,0,0,0,0,0,0,0,0,0,0,0,0,0,0,0,0,0,0,0,0,0,0,0,0,0,0,0,0,0,0,0,0,0,0,0,0,0,0,0,0,0,0,0,0,0,0,0,0,0,0,0,0,0,0,0,0,0,0,0,0,0,0,0,0,0,0,0],"id":0,"left_children":[1,3,5,7,9,11,13,15,17,19,21,23,25,27,29,-1,-1,-1,-1,31,33,35,37,39,41,43,45,47,49,-1,51,53,55,-1,-1,57,59,61,-1,63,65,67,-1,-1,-1,-1,69,71,-1,73,-1,-1,-1,-1,-1,-1,-1,-1,-1,-1,-1,-1,-1,-1,-1,-1,-1,-1,-1,-1,-1,-1,-1,-1,-1],"loss_changes":[2.6405571E8,3.511073E7,2.9855376E7,4.040016E6,5.072033E6,4.430162E6,7.637248E6,3.46824E5,4.50644E5,6.23504E5,7.73984E5,5.8428625E5,5.89224E5,2.352152E6,1.215524E6,0E0,0E0,0E0,0E0,6.70536E5,7.626325E4,1.0117325E5,3.1710194E5,2.2060175E5,6.747175E4,6.29905E4,2.5664E5,1.86144E5,3.07152E5,0E0,3.583E4,6.6161E4,3.195805E5,0E0,0E0,1.59663125E4,5.4200625E4,1.3532047E5,0E0,5.8390625E4,2.1084203E4,2.571625E3,0E0,0E0,0E0,0E0,1.1967E4,1.01857E5,0E0,1.318E4,0E0,0E0,0E0,0E0,0E0,0E0,0E0,0E0,0E0,0E0,0E0,0E0,0E0,0E0,0E0,0E0,0E0,0E0,0E0,0E0,0E0,0E0,0E0,0E0,0E0],"parents":[2147483647,0,0,1,1,2,2,3,3,4,4,5,5,6,6,7,7,8,8,9,9,10,10,11,11,12,12,13,13,14,14,19,19,20,20,21,21,22,22,23,23,24,24,25,25,26,26,27,27,28,28,30,30,31,31,32,32,35,35,36,36,37,37,39,39,40,40,41,41,46,46,47,47,49,49],"right_children":[2,4,6,8,10,12,14,16,18,20,22,24,26,28,30,-1,-1,-1,-1,32,34,36,38,40,42,44,46,48,50,-1,52,54,56,-1,-1,58,60,62,-1,64,66,68,-1,-1,-1,-1,70,72,-1,74,-1,-1,-1,-1,-1,-1,-1,-1,-1,-1,-1,-1,-1,-1,-1,-1,-1,-1,-1,-1,-1,-1,-1,-1,-1],"split_conditions":[6.1326904E2,4.0065768E2,8.3925214E2,2.3529329E2,4.8315497E2,7.735038E2,1.5686116E2,1.7867618E2,3.395932E2,6.594017E2,5.9026953E2,7.082087E2,8.410351E2,9.292888E2,1.1946498E3,-2.2705524E1,-1.9608719E1,-1.6667936E1,-1.3552073E1,4.4099588E2,6.827983E2,2E0,6.578416E2,1.3306912E2,7.398552E2,7.8284784E2,1.1150686E2,9.234944E2,9.890161E2,2.4445517E1,1.0868877E3,3.9842905E2,9.957377E1,-1.6615782E1,-3.9592938E0,5.2919147E2,1.5425996E2,1.7779238E1,7.961368E0,6.792365E2,8.7993463E2,6.810194E2,5.68444E0,7.286274E0,9.007698E0,1.1049891E1,6.3555536E2,1.0512019E2,1.5237775E1,8.724138E2,2.0610426E1,2.6206573E1,3.833033E1,-1.1031352E1,-9.20798E0,-7.1019297E0,8.909177E-1,-4.116046E0,-3.053438E0,-5.291187E0,-1.1190722E1,-9.842594E-1,-1.1677761E1,1.118193E0,2.6498864E0,-6.4270096E0,6.428391E-1,3.598273E0,4.3945193E0,6.9128227E0,1.782826E1,1.3054778E1,5.6877637E0,1.2963405E1,1.788731E1],"split_indices":[5,6,5,5,5,6,8,5,6,9,6,6,6,5,6,0,0,0,0,9,6,2,6,10,6,11,8,6,5,0,5,5,8,0,0,5,10,8,0,6,11,5,0,0,0,0,5,8,0,6,0,0,0,0,0,0,0,0,0,0,0,0,0,0,0,0,0,0,0,0,0,0,0,0,0],"split_type":[0,0,0,0,0,0,0,0,0,0,0,0,0,0,0,0,0,0,0,0,0,0,0,0,0,0,0,0,0,0,0,0,0,0,0,0,0,0,0,0,0,0,0,0,0,0,0,0,0,0,0,0,0,0,0,0,0,0,0,0,0,0,0,0,0,0,0,0,0,0,0,0,0,0,0],"sum_hessian":[4.504E3,2.305E3,2.199E3,1.108E3,1.197E3,1.09E3,1.109E3,5.51E2,5.57E2,5.99E2,5.98E2,5.56E2,5.34E2,1E3,1.09E2,2.94E2,2.57E2,2.84E2,2.73E2,5.67E2,3.2E1,3.01E2,2.97E2,2.63E2,2.93E2,3.05E2,2.29E2,4.66E2,5.34E2,5.4E1,5.5E1,3.24E2,2.43E2,3E1,2E0,1.87E2,1.14E2,2.88E2,9E0,2.54E2,9E0,1.44E2,1.49E2,1.38E2,1.67E2,2.07E2,2.2E1,2.3E2,2.36E2,2.9E2,2.44E2,1.1E1,4.4E1,1.74E2,1.5E2,2.3E2,1.3E1,1E2,8.7E1,1.1E2,4E0,2.86E2,2E0,1.2E2,1.34E2,8E0,1E0,6.4E1,8E1,2E0,2E1,2.23E2,7E0,1.4E1,2.76E2],"tree_param":{"num_deleted":"0","num_feature":"13","num_nodes":"75","size_leaf_vector":"1"}},{"base_weights":[2.005605E-2,-2.3199985E2,2.2815933E2,-3.5034073E2,-1.2252327E2,1.161583E2,3.453026E2,-4.066801E2,-2.939786E2,-1.823427E2,-6.218318E1,5.365138E1,1.8199396E2,3.206151E2,6.0569434E2,-2.176261E1,-1.8909382E1,-1.6122923E1,-1.325767E1,-1.7492265E2,-3.0882474E2,-9.3744545E1,-2.6099936E1,1.6780201E1,8.274482E1,1.4863084E2,2.1700636E2,2.7488412E2,3.715113E2,2.3714672E1,7.0087445E2,-2.0360757E2,-1.3829712E2,-1.6517767E1,-6.5397315E0,-9.013222E1,-1.0207038E1,-3.3386383E1,7.4911346E0,2.2135155E1,-1.0888284E2,6.474055E1,9.952819E1,6.5551043E0,8.099803E0,2.0581828E2,3.2497305E2,2.4835905E2,1.5068642E1,3.522911E2,4.1119086E2,2.5005438E1,3.7077435E1,-1.0936054E1,-9.300591E0,-7.293064E0,4.247945E-1,-5.248809E0,-3.693364E0,-1.5519081E0,-1.1288504E1,3.6046606E-1,1.7994353E0,6.267685E-1,-6.11391E0,2.755108E0,3.612183E0,4.503837E0,5.3809185E0,9.596304E0,1.0935741E1,6.6823945E0,1.6814568E1,1.25799465E1,5.438925E0,1.6309135E1,1.8461084E1,1.9596035E1,2.390397E1],"categories":[],"categories_nodes":[],"categories_segments":[],"categories_sizes":[],"default_left":[0,0,0,0,0,0,0,0,0,0,0,0,0,0,0,0,0,0,0,0,0,0,0,0,0,0,0,0,0,0,0,0,0,0,0,0,0,0,0,0,0,0,0,0,0,0,0,0,0,0,0,0,0,0,0,0,0,0,0,0,0,0,0,0,0,0,0,0,0,0,0,0,0,0,0,0,0,0,0],"id":1,"left_children":[1,3,5,7,9,11,13,15,17,19,21,23,25,27,29,-1,-1,-1,-1,31,33,35,37,39,41,43,45,47,49,-1,51,53,55,-1,-1,57,-1,59,-1,61,63,65,67,-1,-1,69,71,73,-1,75,77,-1,-1,-1,-1,-1,-1,-1,-1,-1,-1,-1,-1,-1,-1,-1,-1,-1,-1,-1,-1,-1,-1,-1,-1,-1,-1,-1,-1],"loss_changes":[2.3851542E8,2.8899792E7,2.976892E7,3.287648E6,4.182912E6,4.776198E6,6.941352E6,2.70112E5,3.57804E5,4.93126E5,6.5807825E5,6.40092E5,6.28902E5,2.262648E6,8.55724E5,0E0,0E0,0E0,0E0,5.52824E5,7.561725E4,1.048255E5,3.536655E5,1.8073389E5,9.4482E4,4.74045E4,2.6409E5,3.0386E5,2.19684E5,0E0,6.194E4,4.1223E4,2.743885E5,0E0,0E0,6.4918E4,0E0,1.1135347E5,0E0,5.246836E4,1.942364E4,7.8793125E3,3.38125E3,0E0,0E0,2.992E3,7.02675E3,9.6992E4,0E0,2.4996E4,5.974E3,0E0,0E0,0E0,0E0,0E0,0E0,0E0,0E0,0E0,0E0,0E0,0E0,0E0,0E0,0E0,0E0,0E0,0E0,0E0,0E0,0E0,0E0,0E0,0E0,0E0,0E0,0E0,0E0],"parents":[2147483647,0,0,1,1,2,2,3,3,4,4,5,5,6,6,7,7,8,8,9,9,10,10,11,11,12,12,13,13,14,14,19,19,20,20,21,21,22,22,23,23,24,24,25,25,26,26,27,27,28,28,30,30,31,31,32,32,35,35,37,37,39,39,40,40,41,41,42,42,45,45,46,46,47,47,49,49,50,50],"right_children":[2,4,6,8,10,12,14,16,18,20,22,24,26,28,30,-1,-1,-1,-1,32,34,36,38,40,42,44,46,48,50,-1,52,54,56,-1,-1,58,-1,60,-1,62,64,66,68,-1,-1,70,72,74,-1,76,78,-1,-1,-1,-1,-1,-1,-1,-1,-1,-1,-1,-1,-1,-1,-1,-1,-1,-1,-1,-1,-1,-1,-1,-1,-1,-1,-1,-1],"split_conditions":[5.9756244E2,3.926346E2,8.3925214E2,2.3128175E2,4.7197385E2,7.665988E2,1.6648305E2,1.70663E2,3.3157013E2,6.594017E2,5.8043567E2,6.923702E2,8.3139124E2,9.439978E2,1.1946498E3,-2.176261E1,-1.8909382E1,-1.6122923E1,-1.325767E1,4.291419E2,6.7242957E2,1.4336238E2,6.4201404E2,1.3306912E2,6.8770526E2,7.960167E2,1.0512019E2,9.3330035E2,1.0105232E3,2.3714672E1,1.0868877E3,3.869798E2,9.957377E1,-1.6517767E1,-6.5397315E0,5.48193E2,-1.0207038E1,6.0279443E2,7.4911346E0,6.6497327E2,2.3217177E2,6.69352E2,7.47067E2,6.5551043E0,8.099803E0,8.189716E2,6.3555536E2,1.0512019E2,1.5068642E1,9.7854156E2,1.1433843E3,2.5005438E1,3.7077435E1,-1.0936054E1,-9.300591E0,-7.293064E0,4.247945E-1,-5.248809E0,-3.693364E0,-1.5519081E0,-1.1288504E1,3.6046606E-1,1.7994353E0,6.267685E-1,-6.11391E0,2.755108E0,3.612183E0,4.503837E0,5.3809185E0,9.596304E0,1.0935741E1,6.6823945E0,1.6814568E1,1.25799465E1,5.438925E0,1.6309135E1,1.8461084E1,1.9596035E1,2.390397E1],"split_indices":[5,6,5,5,5,6,8,5,6,9,6,6,6,5,6,0,0,0,0,9,6,10,6,10,5,6,8,6,5,0,5,5,8,0,0,6,0,7,0,6,12,7,6,0,0,7,5,8,0,9,5,0,0,0,0,0,0,0,0,0,0,0,0,0,0,0,0,0,0,0,0,0,0,0,0,0,0,0,0],"split_type":[0,0,0,0,0,0,0,0,0,0,0,0,0,0,0,0,0,0,0,0,0,0,0,0,0,0,0,0,0,0,0,0,0,0,0,0,0,0,0,0,0,0,0,0,0,0,0,0,0,0,0,0,0,0,0,0,0,0,0,0,0,0,0,0,0,0,0,0,0,0,0,0,0,0,0,0,0,0,0],"sum_hessian":[4.504E3,2.233E3,2.271E3,1.072E3,1.161E3,1.162E3,1.109E3,5.33E2,5.39E2,5.82E2,5.79E2,5.97E2,5.65E2,1.015E3,9.4E1,2.59E2,2.74E2,2.66E2,2.73E2,5.52E2,3E1,3.08E2,2.71E2,2.64E2,3.33E2,2.92E2,2.73E2,5.38E2,4.77E2,4.2E1,5.2E1,3.07E2,2.45E2,2.6E1,4E0,3E2,8E0,2.61E2,1E1,2.54E2,1E1,1.63E2,1.7E2,1.31E2,1.61E2,2.5E2,2.3E1,2.74E2,2.64E2,3.28E2,1.49E2,1.1E1,4.1E1,1.59E2,1.48E2,2.33E2,1.2E1,1.54E2,1.46E2,2.59E2,2E0,1.23E2,1.31E2,1E0,9E0,7.5E1,8.8E1,8.4E1,8.6E1,1.28E2,1.22E2,2E0,2.1E1,2.67E2,7E0,1.37E2,1.91E2,1.21E2,2.8E1],"tree_param":{"num_deleted":"0","num_feature":"13","num_nodes":"79","size_leaf_vector":"1"}},{"base_weights":[4.6587676E-2,-2.2203647E2,2.1533513E2,-3.3462982E2,-1.196112E2,1.03719666E2,3.230259E2,-3.8828543E2,-2.828351E2,-1.766723E2,-6.2540672E1,4.5722298E1,1.6427014E2,2.98216E2,5.55698E2,-2.0769617E1,-1.8141415E1,-1.549339E1,-1.2768107E1,-1.6974348E2,-2.941273E2,-9.440045E1,-3.0247005E1,8.822232E0,7.07628E1,1.3628352E2,2.0148163E2,2.5011673E2,3.444093E2,4.4173862E2,6.5973425E2,-1.9685564E2,-1.348243E2,-1.57224655E1,-6.2781425E0,-9.124349E1,-1.0517501E1,-3.692177E1,7.150628E0,1.4596171E1,-9.921199E1,5.267311E1,8.666257E1,5.921022E0,7.5141764E0,9.462092E0,3.0554034E2,2.2177249E2,1.3452995E1,3.196765E2,1.8619001E1,2.3980665E1,1.778877E1,2.3859356E1,3.4687637E1,-1.0552619E1,-9.004088E0,-7.112603E0,4.0518808E-1,-5.253946E0,-3.818789E0,-1.7419863E0,-1.0912219E1,1.2988935E-1,1.3022761E0,-6.7565837E0,-1.0949054E0,2.1658661E0,2.9982688E0,3.7901065E0,4.65705E0,6.459649E0,1.5809165E1,1.1297536E1,5.074798E0,1.6151037E1,1.1165697E1],"categories":[],"categories_nodes":[],"categories_segments":[],"categories_sizes":[],"default_left":[0,0,0,0,0,0,0,0,0,0,0,0,0,0,0,0,0,0,0,0,0,0,0,0,0,0,0,0,0,0,0,0,0,0,0,0,0,0,0,0,0,0,0,0,0,0,0,0,0,0,0,0,0,0,0,0,0,0,0,0,0,0,0,0,0,0,0,0,0,0,0,0,0,0,0,0,0],"id":2,"left_children":[1,3,5,7,9,11,13,15,17,19,21,23,25,27,29,-1,-1,-1,-1,31,33,35,37,39,41,43,45,47,49,51,53,55,57,-1,-1,59,-1,61,-1,63,65,67,69,-1,-1,-1,71,73,-1,75,-1,-1,-1,-1,-1,-1,-1,-1,-1,-1,-1,-1,-1,-1,-1,-1,-1,-1,-1,-1,-1,-1,-1,-1,-1,-1,-1],"loss_changes":[2.1544059E8,2.553884E7,2.7468144E7,2.824888E6,3.776268E6,3.943228E6,6.553568E6,2.0536E5,3.22656E5,4.22906E5,5.969755E5,5.315975E5,5.45324E5,2.255704E6,1.024572E6,0E0,0E0,0E0,0E0,4.9511E5,6.670975E4,8.8059E4,3.41812E5,1.4741334E5,9.4089625E4,6.148E4,2.40214E5,2.19532E5,2.51064E5,1.1692E4,1.671E4,3.5339E4,2.60192E5,0E0,0E0,5.1011E4,0E0,9.847991E4,0E0,3.0566676E4,3.036596E4,8.523094E3,5.674625E3,0E0,0E0,0E0,2.31875E3,8.4611E4,0E0,2.1642E4,0E0,0E0,0E0,0E0,0E0,0E0,0E0,0E0,0E0,0E0,0E0,0E0,0E0,0E0,0E0,0E0,0E0,0E0,0E0,0E0,0E0,0E0,0E0,0E0,0E0,0E0,0E0],"parents":[2147483647,0,0,1,1,2,2,3,3,4,4,5,5,6,6,7,7,8,8,9,9,10,10,11,11,12,12,13,13,14,14,19,19,20,20,21,21,22,22,23,23,24,24,25,25,26,26,27,27,28,28,29,29,30,30,31,31,32,32,35,35,37,37,39,39,40,40,41,41,42,42,46,46,47,47,49,49],"right_children":[2,4,6,8,10,12,14,16,18,20,22,24,26,28,30,-1,-1,-1,-1,32,34,36,38,40,42,44,46,48,50,52,54,56,58,-1,-1,60,-1,62,-1,64,66,68,70,-1,-1,-1,72,74,-1,76,-1,-1,-1,-1,-1,-1,-1,-1,-1,-1,-1,-1,-1,-1,-1,-1,-1,-1,-1,-1,-1,-1,-1,-1,-1,-1,-1],"split_conditions":[5.9391595E2,3.88803E2,8.295141E2,2.2727022E2,4.6765756E2,7.5813E2,1.5686116E2,1.6682521E2,3.2772495E2,6.594017E2,5.728131E2,6.827983E2,8.2855475E2,9.292888E2,1.1946498E3,-2.0769617E1,-1.8141415E1,-1.549339E1,-1.2768107E1,4.2539548E2,6.7242957E2,1.5425996E2,6.386754E2,2.3217177E2,6.775113E2,7.6860455E2,1.0512019E2,9.099994E2,9.890161E2,7.8509644E2,1.0868877E3,3.8333334E2,9.957377E1,-1.57224655E1,-6.2781425E0,5.414982E2,-1.0517501E1,1.3477701E2,7.150628E0,6.578416E2,6.992073E2,6.775565E2,7.135652E2,5.921022E0,7.5141764E0,9.462092E0,6.3555536E2,1.0512019E2,1.3452995E1,9.928048E2,1.8619001E1,2.3980665E1,1.778877E1,2.3859356E1,3.4687637E1,-1.0552619E1,-9.004088E0,-7.112603E0,4.0518808E-1,-5.253946E0,-3.818789E0,-1.7419863E0,-1.0912219E1,1.2988935E-1,1.3022761E0,-6.7565837E0,-1.0949054E0,2.1658661E0,2.9982688E0,3.7901065E0,4.65705E0,6.459649E0,1.5809165E1,1.1297536E1,5.074798E0,1.6151037E1,1.1165697E1],"split_indices":[5,6,5,5,5,6,8,5,6,9,6,6,6,5,6,0,0,0,0,9,6,10,6,12,5,11,8,6,5,9,5,5,8,0,0,6,0,8,0,6,5,11,11,0,0,0,5,8,0,7,0,0,0,0,0,0,0,0,0,0,0,0,0,0,0,0,0,0,0,0,0,0,0,0,0,0,0],"split_type":[0,0,0,0,0,0,0,0,0,0,0,0,0,0,0,0,0,0,0,0,0,0,0,0,0,0,0,0,0,0,0,0,0,0,0,0,0,0,0,0,0,0,0,0,0,0,0,0,0,0,0,0,0,0,0,0,0,0,0,0,0,0,0,0,0,0,0,0,0,0,0,0,0,0,0,0,0],"sum_hessian":[4.504E3,2.217E3,2.287E3,1.055E3,1.162E3,1.124E3,1.163E3,5.15E2,5.4E2,5.8E2,5.82E2,5.75E2,5.49E2,1.053E3,1.1E2,2.42E2,2.73E2,2.67E2,2.73E2,5.5E2,3E1,2.92E2,2.9E2,2.33E2,3.42E2,3.16E2,2.33E2,5.19E2,5.34E2,5.5E1,5.5E1,3.07E2,2.43E2,2.6E1,4E0,2.86E2,6E0,2.8E2,1E1,2.22E2,1.1E1,1.62E2,1.8E2,1.43E2,1.73E2,2.11E2,2.2E1,2.13E2,3.06E2,2.9E2,2.44E2,3.5E1,2E1,1.1E1,4.4E1,1.6E2,1.47E2,2.31E2,1.2E1,1.45E2,1.41E2,2.78E2,2E0,1.09E2,1.13E2,7E0,4E0,7.4E1,8.8E1,7.2E1,1.08E2,2E0,2E1,2.05E2,8E0,2.78E2,1.2E1],"tree_param":{"num_deleted":"0","num_feature":"13","num_nodes":"77","size_leaf_vector":"1"}},{"base_weights":[6.377175E-2,-2.0950615E2,2.0612854E2,-3.196342E2,-1.1365954E2,1.0489543E2,3.1200958E2,-3.704353E2,-2.7182162E2,-1.7100882E2,-5.9565147E1,4.8429073E1,1.6436891E2,2.8955933E2,5.48825E2,-1.9831259E1,-1.7391232E1,-1.4951508E1,-2.4760599E2,-1.645474E2,-2.801306E2,-8.778516E1,-2.344865E1,9.164829E0,7.076812E1,1.3425073E2,1.9597568E2,2.4817265E2,3.356218E2,2.1478964E1,6.352164E2,-1.2953781E1,-1.1442547E1,-1.9051585E2,-1.3168182E2,-1.4620769E1,-3.400055E0,-6.671942E1,-1.02472015E2,-3.0075056E1,6.825599E0,1.5153627E1,-9.490568E1,5.212538E1,8.773527E1,5.973514E0,7.367952E0,1.861145E2,3.004712E2,2.2269481E2,1.3547215E1,3.284923E2,4.3467816E2,2.27658E1,3.357461E1,-1.018587E1,-8.737176E0,-6.943208E0,3.8648602E-1,-3.6734726E0,-2.9427612E0,-4.920919E0,-1.0066751E1,-1.393607E0,-1.0548478E1,2.392063E-1,1.3100576E0,-6.460983E0,-1.0511091E0,2.1252038E0,3.0158308E0,3.9187047E0,4.7974863E0,8.669385E0,9.850196E0,6.244327E0,1.5589267E1,1.1285379E1,4.978952E0,1.5557279E1,1.7616316E1,5.6053348E0,2.210974E1],"categories":[],"categories_nodes":[],"categories_segments":[],"categories_sizes":[],"default_left":[0,0,0,0,0,0,0,0,0,0,0,0,0,0,0,0,0,0,0,0,0,0,0,0,0,0,0,0,0,0,0,0,0,0,0,0,0,0,0,0,0,0,0,0,0,0,0,0,0,0,0,0,0,0,0,0,0,0,0,0,0,0,0,0,0,0,0,0,0,0,0,0,0,0,0,0,0,0,0,0,0,0,0],"id":3,"left_children":[1,3,5,7,9,11,13,15,17,19,21,23,25,27,29,-1,-1,-1,31,33,35,37,39,41,43,45,47,49,51,-1,53,-1,-1,55,57,-1,-1,59,61,63,-1,65,67,69,71,-1,-1,73,75,77,-1,79,81,-1,-1,-1,-1,-1,-1,-1,-1,-1,-1,-1,-1,-1,-1,-1,-1,-1,-1,-1,-1,-1,-1,-1,-1,-1,-1,-1,-1,-1,-1],"loss_changes":[1.945915E8,2.3544432E7,2.4320088E7,2.42296E6,3.700134E6,3.897685E6,5.74248E6,1.58712E5,2.81092E5,3.62854E5,6.2679275E5,5.238725E5,5.12486E5,1.853576E6,7.05792E5,0E0,0E0,0E0,3.31E3,4.4432E5,6.09005E4,1.0021175E5,2.9241584E5,1.3730823E5,1.15942625E5,3.9163E4,2.26421E5,2.52378E5,1.94784E5,0E0,4.0142E4,0E0,0E0,2.7908E4,2.473935E5,0E0,0E0,3.3730625E3,6.11375E4,9.852569E4,0E0,2.3588023E4,2.7706367E4,1.1937406E4,7.7055E3,0E0,0E0,9.05E2,4.76725E3,7.3964E4,0E0,7.642E4,2.07415E4,0E0,0E0,0E0,0E0,0E0,0E0,0E0,0E0,0E0,0E0,0E0,0E0,0E0,0E0,0E0,0E0,0E0,0E0,0E0,0E0,0E0,0E0,0E0,0E0,0E0,0E0,0E0,0E0,0E0,0E0],"parents":[2147483647,0,0,1,1,2,2,3,3,4,4,5,5,6,6,7,7,8,8,9,9,10,10,11,11,12,12,13,13,14,14,18,18,19,19,20,20,21,21,22,22,23,23,24,24,25,25,26,26,27,27,28,28,30,30,33,33,34,34,37,37,38,38,39,39,41,41,42,42,43,43,44,44,47,47,48,48,49,49,51,51,52,52],"right_children":[2,4,6,8,10,12,14,16,18,20,22,24,26,28,30,-1,-1,-1,32,34,36,38,40,42,44,46,48,50,52,-1,54,-1,-1,56,58,-1,-1,60,62,64,-1,66,68,70,72,-1,-1,74,76,78,-1,80,82,-1,-1,-1,-1,-1,-1,-1,-1,-1,-1,-1,-1,-1,-1,-1,-1,-1,-1,-1,-1,-1,-1,-1,-1,-1,-1,-1,-1,-1,-1],"split_conditions":[5.9756244E2,3.8505725E2,8.3925214E2,2.2415013E2,4.635553E2,7.665988E2,1.6648305E2,1.6272295E2,3.2042697E2,6.594017E2,5.8043567E2,6.827983E2,8.3139124E2,9.439978E2,1.1946498E3,-1.9831259E1,-1.7391232E1,-1.4951508E1,3.5875943E2,4.2093738E2,6.827983E2,2E0,6.4201404E2,2.3217177E2,6.839378E2,7.766276E2,1.1589854E2,9.2984546E2,1.1433843E3,2.1478964E1,1.0868877E3,-1.2953781E1,-1.1442547E1,3.7926282E2,9.957377E1,-1.4620769E1,-3.400055E0,5.31924E2,1.5425996E2,6.0279443E2,6.825599E0,6.6096173E2,6.992073E2,6.696534E2,7.4387634E2,5.973514E0,7.367952E0,8.2478204E2,6.3555536E2,1.0512019E2,1.3547215E1,9.970769E2,8.997622E2,2.27658E1,3.357461E1,-1.018587E1,-8.737176E0,-6.943208E0,3.8648602E-1,-3.6734726E0,-2.9427612E0,-4.920919E0,-1.0066751E1,-1.393607E0,-1.0548478E1,2.392063E-1,1.3100576E0,-6.460983E0,-1.0511091E0,2.1252038E0,3.0158308E0,3.9187047E0,4.7974863E0,8.669385E0,9.850196E0,6.244327E0,1.5589267E1,1.1285379E1,4.978952E0,1.5557279E1,1.7616316E1,5.6053348E0,2.210974E1],"split_indices":[5,6,5,5,5,6,8,5,6,9,6,6,6,5,6,0,0,0,6,9,6,2,6,12,7,11,8,6,5,0,5,0,0,5,8,0,0,9,10,7,0,6,5,9,6,0,0,9,5,8,0,9,6,0,0,0,0,0,0,0,0,0,0,0,0,0,0,0,0,0,0,0,0,0,0,0,0,0,0,0,0,0,0],"split_type":[0,0,0,0,0,0,0,0,0,0,0,0,0,0,0,0,0,0,0,0,0,0,0,0,0,0,0,0,0,0,0,0,0,0,0,0,0,0,0,0,0,0,0,0,0,0,0,0,0,0,0,0,0,0,0,0,0,0,0,0,0,0,0,0,0,0,0,0,0,0,0,0,0,0,0,0,0,0,0,0,0,0,0],"sum_hessian":[4.504E3,2.233E3,2.271E3,1.038E3,1.195E3,1.162E3,1.109E3,5E2,5.38E2,5.79E2,6.16E2,5.97E2,5.65E2,1.015E3,9.4E1,2.24E2,2.76E2,2.48E2,2.9E2,5.49E2,3E1,3.45E2,2.71E2,2.17E2,3.8E2,2.92E2,2.73E2,5.38E2,4.77E2,4.2E1,5.2E1,1.72E2,1.18E2,3.04E2,2.45E2,2.8E1,2E0,1.44E2,2.01E2,2.61E2,1E1,2.06E2,1.1E1,1.83E2,1.97E2,1.42E2,1.5E2,2.52E2,2.1E1,2.59E2,2.79E2,4.49E2,2.8E1,1.1E1,4.1E1,1.59E2,1.45E2,2.33E2,1.2E1,7.3E1,7.1E1,1.95E2,6E0,2.59E2,2E0,1.07E2,9.9E1,7E0,4E0,8.7E1,9.6E1,9.7E1,1E2,1.24E2,1.28E2,2E0,1.9E1,2.52E2,7E0,2.68E2,1.81E2,1E0,2.7E1],"tree_param":{"num_deleted":"0","num_feature":"13","num_nodes":"83","size_leaf_vector":"1"}},{"base_weights":[7.907828E-2,-2.0052336E2,1.9454417E2,-3.0372617E2,-1.09482475E2,9.8332855E1,2.965609E2,-3.536209E2,-2.5974634E2,-1.6391762E2,-5.9376408E1,4.310703E1,1.5452509E2,4.90891E2,2.71624E2,-1.8934134E1,-1.6676268E1,-1.4272849E1,-2.3552353E2,-1.576553E2,-2.6670538E2,-8.7745544E1,-2.7391134E1,7.9966087E0,6.562144E1,1.26012314E2,1.8632416E2,3.9785956E2,6.0206085E2,2.2897433E2,3.0909613E2,-1.2324665E1,-1.0875226E1,-1.8253198E2,-1.2791029E2,-1.4261495E1,-5.6666007E0,-8.517532E1,-9.635318E0,-3.346689E1,6.5153437E0,-8.6794304E1,1.3511407E1,4.783311E1,8.020346E1,5.5163417E0,6.926951E0,1.7688196E2,2.8644006E2,1.5477534E1,2.1321043E1,2.1722368E1,3.170452E1,2.0321878E2,2.4299281E2,2.90005E2,1.6760899E1,-9.730051E0,-8.424182E0,-6.7424874E0,3.686487E-1,-4.973533E0,-3.5219865E0,-1.575696E0,-1.0196863E1,-1.1649646E0,-6.1783137E0,2.1801972E-1,1.2117277E0,1.937424E0,2.7107399E0,3.5105672E0,4.3475094E0,7.7992606E0,9.128509E0,6.036183E0,1.4848775E1,1.0363624E1,4.761123E0,1.2285787E1,8.24079E0,1.4652385E1,9.90915E0],"categories":[],"categories_nodes":[],"categories_segments":[],"categories_sizes":[],"default_left":[0,0,0,0,0,0,0,0,0,0,0,0,0,0,0,0,0,0,0,0,0,0,0,0,0,0,0,0,0,0,0,0,0,0,0,0,0,0,0,0,0,0,0,0,0,0,0,0,0,0,0,0,0,0,0,0,0,0,0,0,0,0,0,0,0,0,0,0,0,0,0,0,0,0,0,0,0,0,0,0,0,0,0],"id":4,"left_children":[1,3,5,7,9,11,13,15,17,19,21,23,25,27,29,-1,-1,-1,31,33,35,37,39,41,43,45,47,49,51,53,55,-1,-1,57,59,-1,-1,61,-1,63,-1,65,67,69,71,-1,-1,73,75,-1,-1,-1,-1,77,79,81,-1,-1,-1,-1,-1,-1,-1,-1,-1,-1,-1,-1,-1,-1,-1,-1,-1,-1,-1,-1,-1,-1,-1,-1,-1,-1,-1],"loss_changes":[1.7577984E8,2.080636E7,2.2427928E7,2.188088E6,3.208754E6,3.652086E6,5.245712E6,1.17456E5,2.79036E5,3.21637E5,5.5655175E5,4.7060738E5,5.06021E5,1.053254E6,1.505024E6,0E0,0E0,0E0,4.104E3,3.72529E5,5.575025E4,7.1532E4,2.8317803E5,1.2349687E5,9.032225E4,4.58225E4,2.0835E5,4.7078E4,1.9792E4,1.18508E5,1.63104E5,0E0,0E0,1.6213E4,2.3287575E5,0E0,0E0,6.04015E4,0E0,8.712456E4,0E0,2.7473875E4,2.1678672E4,7.523125E3,7.243125E3,0E0,0E0,1.5945E3,2.55775E3,0E0,0E0,0E0,0E0,5.46865E4,2.2512E4,2.8254E4,0E0,0E0,0E0,0E0,0E0,0E0,0E0,0E0,0E0,0E0,0E0,0E0,0E0,0E0,0E0,0E0,0E0,0E0,0E0,0E0,0E0,0E0,0E0,0E0,0E0,0E0,0E0],"parents":[2147483647,0,0,1,1,2,2,3,3,4,4,5,5,6,6,7,7,8,8,9,9,10,10,11,11,12,12,13,13,14,14,18,18,19,19,20,20,21,21,22,22,23,23,24,24,25,25,26,26,27,27,28,28,29,29,30,30,33,33,34,34,37,37,39,39,41,41,42,42,43,43,44,44,47,47,48,48,53,53,54,54,55,55],"right_children":[2,4,6,8,10,12,14,16,18,20,22,24,26,28,30,-1,-1,-1,32,34,36,38,40,42,44,46,48,50,52,54,56,-1,-1,58,60,-1,-1,62,-1,64,-1,66,68,70,72,-1,-1,74,76,-1,-1,-1,-1,78,80,82,-1,-1,-1,-1,-1,-1,-1,-1,-1,-1,-1,-1,-1,-1,-1,-1,-1,-1,-1,-1,-1,-1,-1,-1,-1,-1,-1],"split_conditions":[5.9391595E2,3.8505725E2,8.3925214E2,2.2061038E2,4.6036465E2,7.625644E2,8.44378E2,1.5907411E2,3.2042697E2,6.594017E2,5.728131E2,6.827983E2,8.3139124E2,1.1946498E3,9.292888E2,-1.8934134E1,-1.6676268E1,-1.4272849E1,3.5875943E2,4.1729092E2,6.7242957E2,1.5425996E2,6.386754E2,6.128233E2,6.799051E2,7.726161E2,1.1589854E2,1.0046166E3,1.0868877E3,9.099994E2,9.9229095E2,-1.2324665E1,-1.0875226E1,3.8572586E2,9.957377E1,-1.4261495E1,-5.6666007E0,5.3704987E2,-9.635318E0,1.3477701E2,6.5153437E0,2.3217177E2,6.6096173E2,6.660876E2,6.9897943E2,5.5163417E0,6.926951E0,8.2298315E2,6.3555536E2,1.5477534E1,2.1321043E1,2.1722368E1,3.170452E1,1.0512019E2,2.0233652E2,9.963706E2,1.6760899E1,-9.730051E0,-8.424182E0,-6.7424874E0,3.686487E-1,-4.973533E0,-3.5219865E0,-1.575696E0,-1.0196863E1,-1.1649646E0,-6.1783137E0,2.1801972E-1,1.2117277E0,1.937424E0,2.7107399E0,3.5105672E0,4.3475094E0,7.7992606E0,9.128509E0,6.036183E0,1.4848775E1,1.0363624E1,4.761123E0,1.2285787E1,8.24079E0,1.4652385E1,9.90915E0],"split_indices":[5,6,5,5,5,6,9,5,6,9,6,6,6,6,5,0,0,0,6,9,6,10,6,6,7,11,8,6,5,6,5,0,0,9,8,0,0,6,0,8,0,12,6,9,7,0,0,11,5,0,0,0,0,8,10,7,0,0,0,0,0,0,0,0,0,0,0,0,0,0,0,0,0,0,0,0,0,0,0,0,0,0,0],"split_type":[0,0,0,0,0,0,0,0,0,0,0,0,0,0,0,0,0,0,0,0,0,0,0,0,0,0,0,0,0,0,0,0,0,0,0,0,0,0,0,0,0,0,0,0,0,0,0,0,0,0,0,0,0,0,0,0,0,0,0,0,0,0,0,0,0,0,0,0,0,0,0,0,0,0,0,0,0,0,0,0,0,0,0],"sum_hessian":[4.504E3,2.217E3,2.287E3,1.038E3,1.179E3,1.178E3,1.109E3,4.83E2,5.55E2,5.64E2,6.15E2,5.95E2,5.83E2,1.24E2,9.85E2,2.07E2,2.76E2,2.64E2,2.91E2,5.34E2,3E1,3.25E2,2.9E2,2.33E2,3.62E2,3.1E2,2.73E2,7E1,5.4E1,4.64E2,5.21E2,1.73E2,1.18E2,2.88E2,2.46E2,2.6E1,4E0,3.19E2,6E0,2.8E2,1E1,1.2E1,2.21E2,1.65E2,1.97E2,1.42E2,1.68E2,2.52E2,2.1E1,2E1,5E1,1.1E1,4.3E1,1.69E2,2.95E2,3.08E2,2.13E2,1.48E2,1.4E2,2.34E2,1.2E1,1.59E2,1.6E2,2.78E2,2E0,5E0,7E0,1.2E2,1.01E2,7.1E1,9.4E1,8.4E1,1.13E2,6E1,1.92E2,2E0,1.9E1,1.62E2,7E0,2.83E2,1.2E1,2.96E2,1.2E1],"tree_param":{"num_deleted":"0","num_feature":"13","num_nodes":"83","size_leaf_vector":"1"}},{"base_weights":[9.357022E-2,-1.848142E2,1.906677E2,-2.8112E2,-9.133301E1,1.0476378E2,2.8777628E2,-3.2764462E2,-2.3038564E2,-1.4029355E2,-4.196175E1,5.3428574E1,1.5914671E2,2.6752277E2,5.0957367E2,-1.749305E1,-1.4886322E1,-1.2546655E1,-1.0174228E1,-1.3346318E2,-2.5008884E2,-6.598856E1,-9.302164E0,2.5657572E1,8.00418E1,1.3561836E2,1.8848582E2,2.3125008E2,3.0745685E2,1.9666586E1,5.78014E2,-1.5579256E2,-1.0066301E2,-1.301139E1,-3.0978334E0,-5.4989456E1,-8.673255E1,-1.4984921E1,6.343884E0,3.0015585E1,-9.117182E1,6.715394E1,4.6670585E0,6.0434594E0,7.531723E0,8.943656E0,2.7641797E2,2.0931334E2,1.2683776E1,2.994761E2,3.997128E2,2.0726759E1,3.0588175E1,-8.428073E0,-7.0745654E0,-5.3851433E0,6.8167996E-1,-3.2371407E0,-2.3897228E0,-4.0795035E0,-9.126029E0,-9.856968E0,-6.302952E-1,8.169476E-1,2.1203277E0,6.309967E-1,-5.1406493E0,2.9615686E0,3.6226017E0,5.834976E0,1.4303606E1,1.0610695E1,4.5528245E0,1.4237762E1,1.5993121E1,5.046178E0,2.0294806E1],"categories":[],"categories_nodes":[],"categories_segments":[],"categories_sizes":[],"default_left":[0,0,0,0,0,0,0,0,0,0,0,0,0,0,0,0,0,0,0,0,0,0,0,0,0,0,0,0,0,0,0,0,0,0,0,0,0,0,0,0,0,0,0,0,0,0,0,0,0,0,0,0,0,0,0,0,0,0,0,0,0,0,0,0,0,0,0,0,0,0,0,0,0,0,0,0,0],"id":5,"left_children":[1,3,5,7,9,11,13,15,17,19,21,23,25,27,29,-1,-1,-1,-1,31,33,35,37,39,41,43,45,47,49,-1,51,53,55,-1,-1,57,59,61,-1,63,65,67,-1,-1,-1,-1,69,71,-1,73,75,-1,-1,-1,-1,-1,-1,-1,-1,-1,-1,-1,-1,-1,-1,-1,-1,-1,-1,-1,-1,-1,-1,-1,-1,-1,-1],"loss_changes":[1.587853E8,2.0563688E7,1.8480768E7,2.582312E6,2.80295E6,3.282981E6,4.540032E6,2.84676E5,2.4853E5,4.03839E5,4.5451562E5,4.4730462E5,3.6929E5,1.31368E6,4.56836E5,0E0,0E0,0E0,0E0,3.87875E5,4.682375E4,7.1437875E4,1.9304888E5,1.5497061E5,4.6866E4,5.28865E4,1.63563E5,1.95332E5,2.13088E5,0E0,3.3302E4,3.56815E4,1.83315E5,0E0,0E0,1.2414375E4,4.1263125E4,1.0065186E5,0E0,4.8283016E4,1.458832E4,2.4665E3,0E0,0E0,0E0,0E0,2.0805E3,7.0203E4,0E0,3.496E4,2.0003E4,0E0,0E0,0E0,0E0,0E0,0E0,0E0,0E0,0E0,0E0,0E0,0E0,0E0,0E0,0E0,0E0,0E0,0E0,0E0,0E0,0E0,0E0,0E0,0E0,0E0,0E0],"parents":[2147483647,0,0,1,1,2,2,3,3,4,4,5,5,6,6,7,7,8,8,9,9,10,10,11,11,12,12,13,13,14,14,19,19,20,20,21,21,22,22,23,23,24,24,25,25,26,26,27,27,28,28,30,30,31,31,32,32,35,35,36,36,37,37,39,39,40,40,41,41,46,46,47,47,49,49,50,50],"right_children":[2,4,6,8,10,12,14,16,18,20,22,24,26,28,30,-1,-1,-1,-1,32,34,36,38,40,42,44,46,48,50,-1,52,54,56,-1,-1,58,60,62,-1,64,66,68,-1,-1,-1,-1,70,72,-1,74,76,-1,-1,-1,-1,-1,-1,-1,-1,-1,-1,-1,-1,-1,-1,-1,-1,-1,-1,-1,-1,-1,-1,-1,-1,-1,-1],"split_conditions":[6.092575E2,4.0466922E2,8.5128674E2,2.4287062E2,4.8315497E2,7.807967E2,1.7336316E2,1.864249E2,3.5118207E2,6.594017E2,5.9766864E2,7.117745E2,8.500793E2,9.5157513E2,1.1946498E3,-1.749305E1,-1.4886322E1,-1.2546655E1,-1.0174228E1,4.4509512E2,6.827983E2,2E0,6.5362665E2,1.3306912E2,7.47067E2,7.7708563E2,1.1589854E2,9.4397546E2,1.1433843E3,1.9666586E1,1.0868877E3,4.0934933E2,9.957377E1,-1.301139E1,-3.0978334E0,5.3580066E2,1.5425996E2,5.5175885E2,6.343884E0,6.792365E2,2.3217177E2,6.874824E2,4.6670585E0,6.0434594E0,7.531723E0,8.943656E0,6.3555536E2,1.0512019E2,1.2683776E1,9.999364E2,8.997622E2,2.0726759E1,3.0588175E1,-8.428073E0,-7.0745654E0,-5.3851433E0,6.8167996E-1,-3.2371407E0,-2.3897228E0,-4.0795035E0,-9.126029E0,-9.856968E0,-6.302952E-1,8.169476E-1,2.1203277E0,6.309967E-1,-5.1406493E0,2.9615686E0,3.6226017E0,5.834976E0,1.4303606E1,1.0610695E1,4.5528245E0,1.4237762E1,1.5993121E1,5.046178E0,2.0294806E1],"split_indices":[5,6,5,5,5,6,8,5,6,9,6,6,6,5,6,0,0,0,0,9,6,2,6,10,6,7,8,6,5,0,5,9,8,0,0,9,10,5,0,6,12,7,0,0,0,0,5,8,0,9,6,0,0,0,0,0,0,0,0,0,0,0,0,0,0,0,0,0,0,0,0,0,0,0,0,0,0],"split_type":[0,0,0,0,0,0,0,0,0,0,0,0,0,0,0,0,0,0,0,0,0,0,0,0,0,0,0,0,0,0,0,0,0,0,0,0,0,0,0,0,0,0,0,0,0,0,0,0,0,0,0,0,0,0,0,0,0,0,0,0,0,0,0,0,0,0,0,0,0,0,0,0,0,0,0,0,0],"sum_hessian":[4.504E3,2.286E3,2.218E3,1.125E3,1.161E3,1.178E3,1.04E3,5.84E2,5.41E2,5.82E2,5.79E2,6.07E2,5.71E2,9.55E2,8.5E1,3.29E2,2.55E2,3.02E2,2.39E2,5.5E2,3.2E1,3.33E2,2.46E2,2.98E2,3.09E2,3.2E2,2.51E2,5.04E2,4.51E2,3.4E1,5.1E1,3.25E2,2.25E2,3E1,2E0,2.2E2,1.13E2,2.37E2,9E0,2.88E2,1E1,1.6E2,1.49E2,1.66E2,1.54E2,2.29E2,2.2E1,2.6E2,2.44E2,4.19E2,3.2E1,1.1E1,4E1,1.66E2,1.59E2,2.12E2,1.3E1,9E1,1.3E2,1.09E2,4E0,2E0,2.35E2,1.38E2,1.5E2,1E0,9E0,6.9E1,9.1E1,2E0,2E1,2.53E2,7E0,2.52E2,1.67E2,1E0,3.1E1],"tree_param":{"num_deleted":"0","num_feature":"13","num_nodes":"77","size_leaf_vector":"1"}},{"base_weights":[1.0939187E-1,-1.8110529E2,1.7577986E2,-2.7573138E2,-1.0016212E2,8.461613E1,2.6373813E2,-3.2085965E2,-2.3718047E2,-1.5072577E2,-5.502322E1,3.732934E1,1.3398445E2,4.458783E2,2.419848E2,-1.7216537E1,-1.5186286E1,-1.3105019E1,-2.1664021E2,-1.4514128E2,-2.4206088E2,-8.195551E1,-2.6610256E1,7.3403544E0,5.767947E1,1.09898544E2,1.628717E2,3.6219946E2,5.495636E2,2.0336691E2,2.7962686E2,-1.1296725E1,-1.0002074E1,-1.6595493E2,-1.1669537E2,-1.2948357E1,-5.1177506E0,-7.964557E1,-8.775754E0,-3.1865417E1,5.956572E0,-8.01747E1,1.2432045E1,4.2000088E1,6.993741E1,4.744312E0,6.00246E0,7.652416E0,1.2615788E1,1.509249E1,1.9949778E1,1.9776785E1,2.9024338E1,1.8072054E2,2.1858972E2,2.5331644E2,2.958232E2,-8.880856E0,-7.648538E0,-6.1766095E0,3.2017085E-1,-4.5445375E0,-3.2494304E0,-2.319435E0,-7.1236473E-1,-1.1081098E0,-5.6831117E0,2.1228933E-1,1.1010655E0,1.6880541E0,2.3621237E0,3.015749E0,3.768956E0,9.2022505E0,4.2273707E0,1.1092114E1,7.52189E0,7.758837E0,1.2798772E1,1.4045923E1,1.5909961E1],"categories":[],"categories_nodes":[],"categories_segments":[],"categories_sizes":[],"default_left":[0,0,0,0,0,0,0,0,0,0,0,0,0,0,0,0,0,0,0,0,0,0,0,0,0,0,0,0,0,0,0,0,0,0,0,0,0,0,0,0,0,0,0,0,0,0,0,0,0,0,0,0,0,0,0,0,0,0,0,0,0,0,0,0,0,0,0,0,0,0,0,0,0,0,0,0,0,0,0,0,0],"id":6,"left_children":[1,3,5,7,9,11,13,15,17,19,21,23,25,27,29,-1,-1,-1,31,33,35,37,39,41,43,45,47,49,51,53,55,-1,-1,57,59,-1,-1,61,-1,63,-1,65,67,69,71,-1,-1,-1,-1,-1,-1,-1,-1,73,75,77,79,-1,-1,-1,-1,-1,-1,-1,-1,-1,-1,-1,-1,-1,-1,-1,-1,-1,-1,-1,-1,-1,-1,-1,-1],"loss_changes":[1.4344432E8,1.6960784E7,1.8324256E7,1.701912E6,2.723726E6,2.621277E6,4.504056E6,8.3628E4,2.273E5,2.5254E5,4.8297238E5,3.510977E5,3.64777E5,8.6813E5,1.45784E6,0E0,0E0,0E0,2.627E3,2.96796E5,4.6712375E4,5.625925E4,2.4122397E5,1.0526702E5,6.2986125E4,3.478125E4,1.792865E5,3.7228E4,2.2837E4,1.3907E5,1.48788E5,0E0,0E0,1.9165E4,1.9351825E5,0E0,0E0,4.667075E4,0E0,7.610094E4,0E0,2.273604E4,1.7333547E4,5.0134375E3,5.4548125E3,0E0,0E0,0E0,0E0,0E0,0E0,0E0,0E0,5.28605E4,3.4236E4,1.4297E4,1.7E4,0E0,0E0,0E0,0E0,0E0,0E0,0E0,0E0,0E0,0E0,0E0,0E0,0E0,0E0,0E0,0E0,0E0,0E0,0E0,0E0,0E0,0E0,0E0,0E0],"parents":[2147483647,0,0,1,1,2,2,3,3,4,4,5,5,6,6,7,7,8,8,9,9,10,10,11,11,12,12,13,13,14,14,18,18,19,19,20,20,21,21,22,22,23,23,24,24,25,25,26,26,27,27,28,28,29,29,30,30,33,33,34,34,37,37,39,39,41,41,42,42,43,43,44,44,53,53,54,54,55,55,56,56],"right_children":[2,4,6,8,10,12,14,16,18,20,22,24,26,28,30,-1,-1,-1,32,34,36,38,40,42,44,46,48,50,52,54,56,-1,-1,58,60,-1,-1,62,-1,64,-1,66,68,70,72,-1,-1,-1,-1,-1,-1,-1,-1,74,76,78,80,-1,-1,-1,-1,-1,-1,-1,-1,-1,-1,-1,-1,-1,-1,-1,-1,-1,-1,-1,-1,-1,-1,-1,-1],"split_conditions":[5.9391595E2,3.8105432E2,8.295141E2,2.1701851E2,4.562624E2,7.5813E2,8.375446E2,1.5497424E2,3.1268332E2,6.594017E2,5.688466E2,6.827983E2,8.2543463E2,1.1946498E3,9.292888E2,-1.7216537E1,-1.5186286E1,-1.3105019E1,3.547479E2,4.1729092E2,6.7242957E2,1.5425996E2,6.386754E2,6.128233E2,6.771007E2,7.6461554E2,1.0512019E2,1.0518389E3,1.0868877E3,9.099994E2,9.7177966E2,-1.1296725E1,-1.0002074E1,3.7591986E2,9.957377E1,-1.2948357E1,-5.1177506E0,5.3704987E2,-8.775754E0,5.633477E2,5.956572E0,2.3217177E2,6.6096173E2,6.551673E2,6.919144E2,4.744312E0,6.00246E0,7.652416E0,1.2615788E1,1.509249E1,1.9949778E1,1.9776785E1,2.9024338E1,1.0512019E2,2.0233652E2,8.724138E2,1.4336238E2,-8.880856E0,-7.648538E0,-6.1766095E0,3.2017085E-1,-4.5445375E0,-3.2494304E0,-2.319435E0,-7.1236473E-1,-1.1081098E0,-5.6831117E0,2.1228933E-1,1.1010655E0,1.6880541E0,2.3621237E0,3.015749E0,3.768956E0,9.2022505E0,4.2273707E0,1.1092114E1,7.52189E0,7.758837E0,1.2798772E1,1.4045923E1,1.5909961E1],"split_indices":[5,6,5,5,5,6,9,5,6,9,6,6,6,6,5,0,0,0,6,9,6,10,6,6,7,11,8,6,5,6,5,0,0,7,8,0,0,6,0,5,0,12,6,5,5,0,0,0,0,0,0,0,0,8,10,6,10,0,0,0,0,0,0,0,0,0,0,0,0,0,0,0,0,0,0,0,0,0,0,0,0],"split_type":[0,0,0,0,0,0,0,0,0,0,0,0,0,0,0,0,0,0,0,0,0,0,0,0,0,0,0,0,0,0,0,0,0,0,0,0,0,0,0,0,0,0,0,0,0,0,0,0,0,0,0,0,0,0,0,0,0,0,0,0,0,0,0,0,0,0,0,0,0,0,0,0,0,0,0,0,0,0,0,0,0],"sum_hessian":[4.504E3,2.217E3,2.287E3,1.021E3,1.196E3,1.124E3,1.163E3,4.67E2,5.54E2,5.63E2,6.33E2,5.75E2,5.49E2,1.22E2,1.041E3,1.89E2,2.78E2,2.45E2,3.09E2,5.33E2,3E1,3.24E2,3.09E2,2.33E2,3.42E2,3.02E2,2.47E2,7E1,5.2E1,5.17E2,5.24E2,1.9E2,1.19E2,3.05E2,2.28E2,2.6E1,4E0,3.18E2,6E0,2.99E2,1E1,1.2E1,2.21E2,1.52E2,1.9E2,1.26E2,1.76E2,2.25E2,2.2E1,3E1,4E1,1.1E1,4.1E1,2.13E2,3.04E2,2.06E2,3.18E2,1.54E2,1.51E2,2.16E2,1.2E1,1.77E2,1.41E2,1.63E2,1.36E2,5E0,7E0,1.2E2,1.01E2,6.2E1,9E1,7.3E1,1.17E2,2.05E2,8E0,2.88E2,1.6E1,7E0,1.99E2,1.99E2,1.19E2],"tree_param":{"num_deleted":"0","num_feature":"13","num_nodes":"81","size_leaf_vector":"1"}},{"base_weights":[1.22099966E-1,-1.7210452E2,1.670795E2,-2.5929028E2,-9.279219E1,7.771175E1,2.4818356E2,-2.9716583E2,-2.1476552E2,-1.3707066E2,-4.850645E1,3.4086796E1,1.2323709E2,2.2886041E2,4.3367828E2,-1.5872664E1,-1.356902E1,-1.1648968E1,-9.736929E0,-1.3156316E2,-2.3054062E2,-6.9613235E1,-1.8896555E1,6.9499273E0,5.352046E1,1.00842995E2,1.4934796E2,1.8653355E2,2.6246915E2,3.4539978E2,5.1578894E2,-1.5020891E2,-1.00333206E2,-1.2324917E1,-4.913041E0,-6.703896E1,-7.8420367E0,-2.5049744E1,5.68582E0,1.1630244E1,-8.0605125E1,3.940371E1,6.4814545E1,4.384931E0,5.520349E0,7.014371E0,1.1720022E1,4.1035643E0,1.8878464E2,2.3751523E2,2.824687E2,1.8898472E1,1.3578379E1,1.6901152E1,2.6714283E1,-8.087943E0,-6.7747607E0,-5.345552E0,3.532121E-1,-3.9153068E0,-2.6833684E0,-1.1410722E0,-9.451087E0,2.4872614E-2,9.579987E-1,-5.434476E0,-9.774542E-1,1.5778987E0,2.2011015E0,2.8497355E0,3.5211136E0,8.503527E0,1.0035289E1,7.6874375E0,1.2037635E1,1.3847458E1,1.7708715E1],"categories":[],"categories_nodes":[],"categories_segments":[],"categories_sizes":[],"default_left":[0,0,0,0,0,0,0,0,0,0,0,0,0,0,0,0,0,0,0,0,0,0,0,0,0,0,0,0,0,0,0,0,0,0,0,0,0,0,0,0,0,0,0,0,0,0,0,0,0,0,0,0,0,0,0,0,0,0,0,0,0,0,0,0,0,0,0,0,0,0,0,0,0,0,0,0,0],"id":7,"left_children":[1,3,5,7,9,11,13,15,17,19,21,23,25,27,29,-1,-1,-1,-1,31,33,35,37,39,41,43,45,47,49,51,53,55,57,-1,-1,59,-1,61,-1,63,65,67,69,-1,-1,-1,-1,-1,71,73,75,-1,-1,-1,-1,-1,-1,-1,-1,-1,-1,-1,-1,-1,-1,-1,-1,-1,-1,-1,-1,-1,-1,-1,-1,-1,-1],"loss_changes":[1.2956783E8,1.5313196E7,1.6564332E7,1.717024E6,2.273884E6,2.160584E6,4.198376E6,2.1098E5,1.33002E5,2.68761E5,3.6304188E5,2.9389988E5,2.965995E5,1.498776E6,6.3369E5,0E0,0E0,0E0,0E0,3.05779E5,4.121625E4,6.5831875E4,2.0195072E5,9.682725E4,4.9262625E4,2.677425E4,1.551485E5,9.8556E4,2.34348E5,3.4423E4,3.531E3,3.6373E4,1.4840175E5,0E0,0E0,4.581675E4,0E0,8.118491E4,0E0,1.868387E4,1.8451875E4,3.9371719E3,3.8356875E3,0E0,0E0,0E0,0E0,0E0,7.1612E4,3.7562E4,3.252E4,0E0,0E0,0E0,0E0,0E0,0E0,0E0,0E0,0E0,0E0,0E0,0E0,0E0,0E0,0E0,0E0,0E0,0E0,0E0,0E0,0E0,0E0,0E0,0E0,0E0,0E0],"parents":[2147483647,0,0,1,1,2,2,3,3,4,4,5,5,6,6,7,7,8,8,9,9,10,10,11,11,12,12,13,13,14,14,19,19,20,20,21,21,22,22,23,23,24,24,25,25,26,26,27,27,28,28,29,29,30,30,31,31,32,32,35,35,37,37,39,39,40,40,41,41,42,42,48,48,49,49,50,50],"right_children":[2,4,6,8,10,12,14,16,18,20,22,24,26,28,30,-1,-1,-1,-1,32,34,36,38,40,42,44,46,48,50,52,54,56,58,-1,-1,60,-1,62,-1,64,66,68,70,-1,-1,-1,-1,-1,72,74,76,-1,-1,-1,-1,-1,-1,-1,-1,-1,-1,-1,-1,-1,-1,-1,-1,-1,-1,-1,-1,-1,-1,-1,-1,-1,-1],"split_conditions":[5.9391595E2,3.88803E2,8.2320605E2,2.3885909E2,4.6765756E2,7.545642E2,1.5686116E2,1.8232263E2,3.3558167E2,6.594017E2,5.8335016E2,6.827983E2,8.187488E2,9.1571545E2,1.1946498E3,-1.5872664E1,-1.356902E1,-1.1648968E1,-9.736929E0,4.3324417E2,6.7242957E2,1.4336238E2,6.386754E2,2.3217177E2,6.937226E2,7.610272E2,1.0512019E2,8.0677765E2,9.7177966E2,7.8509644E2,1.0565469E3,3.9085416E2,5.1119775E2,-1.2324917E1,-4.913041E0,5.271403E2,-7.8420367E0,5.9824615E2,5.68582E0,6.5362665E2,6.992073E2,6.6296747E2,6.919144E2,4.384931E0,5.520349E0,7.014371E0,1.1720022E1,4.1035643E0,8.741083E2,8.724138E2,1.1433843E3,1.8898472E1,1.3578379E1,1.6901152E1,2.6714283E1,-8.087943E0,-6.7747607E0,-5.345552E0,3.532121E-1,-3.9153068E0,-2.6833684E0,-1.1410722E0,-9.451087E0,2.4872614E-2,9.579987E-1,-5.434476E0,-9.774542E-1,1.5778987E0,2.2011015E0,2.8497355E0,3.5211136E0,8.503527E0,1.0035289E1,7.6874375E0,1.2037635E1,1.3847458E1,1.7708715E1],"split_indices":[5,6,5,5,5,6,8,5,6,9,6,6,6,5,6,0,0,0,0,9,6,10,6,12,11,11,8,6,5,9,5,7,6,0,0,11,0,7,0,6,5,9,5,0,0,0,0,0,9,6,5,0,0,0,0,0,0,0,0,0,0,0,0,0,0,0,0,0,0,0,0,0,0,0,0,0,0],"split_type":[0,0,0,0,0,0,0,0,0,0,0,0,0,0,0,0,0,0,0,0,0,0,0,0,0,0,0,0,0,0,0,0,0,0,0,0,0,0,0,0,0,0,0,0,0,0,0,0,0,0,0,0,0,0,0,0,0,0,0,0,0,0,0,0,0,0,0,0,0,0,0,0,0,0,0,0,0],"sum_hessian":[4.504E3,2.217E3,2.287E3,1.055E3,1.162E3,1.089E3,1.198E3,5.67E2,4.88E2,5.8E2,5.82E2,5.57E2,5.32E2,1.087E3,1.11E2,3.11E2,2.56E2,2.5E2,2.38E2,5.5E2,3E1,3.39E2,2.43E2,2.33E2,3.24E2,2.89E2,2.43E2,4.84E2,6.03E2,5.6E1,5.5E1,3.42E2,2.08E2,2.6E1,4E0,3.31E2,8E0,2.33E2,1E1,2.22E2,1.1E1,1.46E2,1.78E2,1.26E2,1.63E2,2.22E2,2.1E1,1.1E1,4.73E2,2.74E2,3.29E2,3.6E1,2E1,7E0,4.8E1,1.86E2,1.56E2,1.96E2,1.2E1,1.77E2,1.54E2,2.31E2,2E0,9E1,1.32E2,7E0,4E0,5.7E1,8.9E1,7.9E1,9.9E1,1.9E2,2.83E2,1.2E1,2.62E2,3.1E2,1.9E1],"tree_param":{"num_deleted":"0","num_feature":"13","num_nodes":"77","size_leaf_vector":"1"}},{"base_weights":[1.3288651E-1,-1.6354767E2,1.5880566E2,-2.4898804E2,-9.046195E1,8.0171265E1,2.4218509E2,-2.9126898E2,-2.1521584E2,-1.3897714E2,-5.1964195E1,3.744523E1,1.2846974E2,4.0337738E2,2.2150433E2,-3.1330722E2,-1.3834548E1,-1.1945143E1,-1.9647864E2,-1.3386113E2,-2.1961139E2,-7.6460304E1,-2.3520252E1,1.0912328E1,5.8823616E1,1.0831802E2,1.5629881E2,3.0329797E2,4.7283447E2,1.9122728E2,2.5685104E2,-1.573513E1,-6.490041E0,-1.0242602E1,-9.023348E0,-1.3728696E2,-1.3940151E1,-2.2959746E2,-2.6602132E0,-7.41535E1,-8.4201E0,-2.8750296E1,5.4595423E0,-7.3771706E1,1.4964298E1,4.5541252E1,7.047807E1,4.866177E0,6.1036377E0,7.3570743E0,2.3618903E2,1.0264717E1,1.5793958E1,1.5991973E1,2.4905142E1,1.7405692E2,2.1084097E2,2.4464053E2,1.4050826E1,-7.7242775E0,-5.9869304E0,-2.7157788E0,2.783779E0,-1.0005188E1,-1.521952E1,-4.3281293E0,-3.0553982E0,-1.3551888E0,-9.13605E0,-1.0629768E0,-5.1967187E0,2.942819E-1,1.3444E0,1.8896412E0,2.516256E0,3.2049577E0,3.861651E0,4.8292837E0,1.2266004E1,8.805613E0,3.9667623E0,1.0735005E1,6.591471E0,1.2357414E1,7.259727E0],"categories":[],"categories_nodes":[],"categories_segments":[],"categories_sizes":[],"default_left":[0,0,0,0,0,0,0,0,0,0,0,0,0,0,0,0,0,0,0,0,0,0,0,0,0,0,0,0,0,0,0,0,0,0,0,0,0,0,0,0,0,0,0,0,0,0,0,0,0,0,0,0,0,0,0,0,0,0,0,0,0,0,0,0,0,0,0,0,0,0,0,0,0,0,0,0,0,0,0,0,0,0,0,0,0],"id":8,"left_children":[1,3,5,7,9,11,13,15,17,19,21,23,25,27,29,31,-1,-1,33,35,37,39,41,43,45,47,49,51,53,55,57,-1,-1,-1,-1,59,61,63,-1,65,-1,67,-1,69,71,73,75,-1,-1,-1,77,-1,-1,-1,-1,79,81,83,-1,-1,-1,-1,-1,-1,-1,-1,-1,-1,-1,-1,-1,-1,-1,-1,-1,-1,-1,-1,-1,-1,-1,-1,-1,-1,-1],"loss_changes":[1.1702826E8,1.3827708E7,1.4981832E7,1.396648E6,2.228447E6,2.428177E6,3.610924E6,5.8204E4,2.06932E5,1.88829E5,4.64338E5,3.5501156E5,2.93195E5,7.25492E5,1.006092E6,3.192E3,0E0,0E0,6.604E3,2.03501E5,3.763725E4,6.365325E4,2.189996E5,9.75255E4,5.0505625E4,3.71165E4,1.3351E5,1.734E3,1.19035E5,1.43476E5,6.4622E4,0E0,0E0,0E0,0E0,1.2818E5,4.518552E4,8.56125E2,0E0,5.169325E4,0E0,7.110222E4,0E0,1.8381188E4,2.8961332E4,4.2142188E3,2.93475E3,0E0,0E0,0E0,4.3495E3,0E0,0E0,0E0,0E0,4.2682E4,4.6401E4,4.0926E4,0E0,0E0,0E0,0E0,0E0,0E0,0E0,0E0,0E0,0E0,0E0,0E0,0E0,0E0,0E0,0E0,0E0,0E0,0E0,0E0,0E0,0E0,0E0,0E0,0E0,0E0,0E0],"parents":[2147483647,0,0,1,1,2,2,3,3,4,4,5,5,6,6,7,7,8,8,9,9,10,10,11,11,12,12,13,13,14,14,15,15,18,18,19,19,20,20,21,21,22,22,23,23,24,24,25,25,26,26,27,27,28,28,29,29,30,30,35,35,36,36,37,37,39,39,41,41,43,43,44,44,45,45,46,46,50,50,55,55,56,56,57,57],"right_children":[2,4,6,8,10,12,14,16,18,20,22,24,26,28,30,32,-1,-1,34,36,38,40,42,44,46,48,50,52,54,56,58,-1,-1,-1,-1,60,62,64,-1,66,-1,68,-1,70,72,74,76,-1,-1,-1,78,-1,-1,-1,-1,80,82,84,-1,-1,-1,-1,-1,-1,-1,-1,-1,-1,-1,-1,-1,-1,-1,-1,-1,-1,-1,-1,-1,-1,-1,-1,-1,-1,-1],"split_conditions":[5.9391595E2,3.8105432E2,8.3925214E2,2.1331749E2,4.4879608E2,7.6940155E2,8.44378E2,1.5087198E2,3.0908743E2,6.594017E2,5.688466E2,6.923702E2,8.410351E2,1.1138656E3,9.439978E2,3.798221E2,-1.3834548E1,-1.1945143E1,3.547479E2,7.801935E2,6.827983E2,1.5425996E2,6.386754E2,6.128233E2,6.967004E2,8.1027997E2,1.1589854E2,9.4397546E2,1.0355925E3,9.3677814E2,1.0068768E3,-1.573513E1,-6.490041E0,-1.0242602E1,-9.023348E0,4.3542432E2,2.9992075E2,2.2347517E2,-2.6602132E0,5.299182E2,-8.4201E0,1.3477701E2,5.4595423E0,2.3217177E2,6.6853906E2,6.853052E2,7.5071344E2,4.866177E0,6.1036377E0,7.3570743E0,6.3555536E2,1.0264717E1,1.5793958E1,1.5991973E1,2.4905142E1,1.0512019E2,2.0233652E2,9.957377E1,1.4050826E1,-7.7242775E0,-5.9869304E0,-2.7157788E0,2.783779E0,-1.0005188E1,-1.521952E1,-4.3281293E0,-3.0553982E0,-1.3551888E0,-9.13605E0,-1.0629768E0,-5.1967187E0,2.942819E-1,1.3444E0,1.8896412E0,2.516256E0,3.2049577E0,3.861651E0,4.8292837E0,1.2266004E1,8.805613E0,3.9667623E0,1.0735005E1,6.591471E0,1.2357414E1,7.259727E0],"split_indices":[5,6,5,5,5,6,9,5,6,9,6,6,6,6,5,12,0,0,6,11,6,10,6,6,9,6,8,6,5,6,5,0,0,0,0,6,5,8,0,6,0,8,0,12,6,11,6,0,0,0,5,0,0,0,0,8,10,8,0,0,0,0,0,0,0,0,0,0,0,0,0,0,0,0,0,0,0,0,0,0,0,0,0,0,0],"split_type":[0,0,0,0,0,0,0,0,0,0,0,0,0,0,0,0,0,0,0,0,0,0,0,0,0,0,0,0,0,0,0,0,0,0,0,0,0,0,0,0,0,0,0,0,0,0,0,0,0,0,0,0,0,0,0,0,0,0,0,0,0,0,0,0,0,0,0,0,0,0,0,0,0,0,0,0,0,0,0,0,0,0,0,0,0],"sum_hessian":[4.504E3,2.217E3,2.287E3,1.021E3,1.196E3,1.178E3,1.109E3,4.5E2,5.71E2,5.28E2,6.68E2,6.26E2,5.52E2,1.24E2,9.85E2,1.71E2,2.79E2,2.47E2,3.24E2,4.99E2,2.9E1,3.58E2,3.1E2,2.8E2,3.46E2,3.23E2,2.29E2,5.3E1,7.1E1,5.34E2,4.51E2,1.69E2,2E0,2.05E2,1.19E2,4.85E2,1.4E1,2.7E1,2E0,3.51E2,7E0,2.99E2,1.1E1,1.2E1,2.68E2,1.64E2,1.82E2,1.84E2,1.39E2,2.08E2,2.1E1,8E0,4.5E1,1.2E1,5.9E1,2.9E2,2.44E2,3.07E2,1.44E2,2.41E2,2.44E2,9E0,5E0,2.2E1,5E0,1.77E2,1.74E2,2.97E2,2E0,5E0,7E0,1.53E2,1.15E2,6.6E1,9.8E1,9.9E1,8.3E1,2E0,1.9E1,2.83E2,7E0,2.31E2,1.3E1,2.98E2,9E0],"tree_param":{"num_deleted":"0","num_feature":"13","num_nodes":"85","size_leaf_vector":"1"}},{"base_weights":[1.3586892E-1,-1.590731E2,1.4750616E2,-2.3927708E2,-9.197725E1,6.1694923E1,2.198798E2,-2.7829205E2,-2.0835153E2,-1.3559544E2,-5.4514305E1,2.3729532E1,1.02864105E2,2.0278027E2,3.913463E2,-2.994463E2,-1.3271014E1,-1.1467406E1,-9.535571E0,-1.3126932E2,-2.0804431E2,-7.571903E1,-2.9201466E1,-1.2498128E0,4.15867E1,8.279105E1,1.2456558E2,1.6495352E2,2.3707732E2,3.1243057E2,4.675014E2,-1.5044545E1,-6.273706E0,-1.4789478E2,-1.0886237E2,-2.2347855E2,-4.463212E0,-8.874343E1,-6.430096E1,-3.380012E1,4.5673003E0,4.765877E0,-1.12937225E2,3.0710703E1,5.2678604E1,3.6534154E0,4.6056814E0,1.1634826E2,9.465289E0,1.456429E2,1.7876595E2,2.1437122E2,2.5528064E2,1.6794334E1,1.1736104E1,1.6976366E1,2.4561945E1,-7.8234763E0,-6.7857056E0,-5.7045107E0,-1.114778E0,-9.283844E0,-1.4029876E1,-7.6585283E0,-4.30463E0,-3.5422103E0,-2.9167411E0,-1.6074542E0,-8.831515E0,3.0602485E-1,-1.6202303E0,-6.418111E0,-1.193744E0,1.2111131E0,1.7806548E0,2.3120122E0,2.858622E0,2.287146E0,5.839309E0,3.8743112E0,7.4634347E0,8.789069E0,1.1366778E1,6.8628654E0,1.0868392E1,1.2026826E1,1.3792104E1],"categories":[],"categories_nodes":[],"categories_segments":[],"categories_sizes":[],"default_left":[0,0,0,0,0,0,0,0,0,0,0,0,0,0,0,0,0,0,0,0,0,0,0,0,0,0,0,0,0,0,0,0,0,0,0,0,0,0,0,0,0,0,0,0,0,0,0,0,0,0,0,0,0,0,0,0,0,0,0,0,0,0,0,0,0,0,0,0,0,0,0,0,0,0,0,0,0,0,0,0,0,0,0,0,0,0,0],"id":9,"left_children":[1,3,5,7,9,11,13,15,17,19,21,23,25,27,29,31,-1,-1,-1,33,35,37,39,41,43,45,47,49,51,53,55,-1,-1,57,59,61,-1,63,65,67,-1,69,71,73,75,-1,-1,77,-1,79,81,83,85,-1,-1,-1,-1,-1,-1,-1,-1,-1,-1,-1,-1,-1,-1,-1,-1,-1,-1,-1,-1,-1,-1,-1,-1,-1,-1,-1,-1,-1,-1,-1,-1,-1,-1],"loss_changes":[1.0572282E8,1.1634E7,1.4518936E7,1.131692E6,1.92244E6,1.6730998E6,3.641344E6,3.842E4,1.61452E5,1.43506E5,3.3969962E5,2.4939969E5,2.13593E5,1.460632E6,5.3906E5,1.451E3,0E0,0E0,0E0,1.76496E5,3.3216375E4,4.5748625E4,1.6495952E5,1.577574E5,3.7709375E4,1.77425E4,1.083125E5,1.21464E5,1.9492E5,2.8701E4,3.327E3,0E0,0E0,9.4725E3,9.8829E4,1.879375E3,0E0,1.3968125E4,3.2064375E3,6.082222E4,0E0,1.1426803E4,1.3420797E4,4.449453E3,1.9855625E3,0E0,0E0,1.46025E3,0E0,4.67545E4,6.136E3,3.3711E4,3.3694E4,0E0,0E0,0E0,0E0,0E0,0E0,0E0,0E0,0E0,0E0,0E0,0E0,0E0,0E0,0E0,0E0,0E0,0E0,0E0,0E0,0E0,0E0,0E0,0E0,0E0,0E0,0E0,0E0,0E0,0E0,0E0,0E0,0E0,0E0],"parents":[2147483647,0,0,1,1,2,2,3,3,4,4,5,5,6,6,7,7,8,8,9,9,10,10,11,11,12,12,13,13,14,14,15,15,19,19,20,20,21,21,22,22,23,23,24,24,25,25,26,26,27,27,28,28,29,29,30,30,33,33,34,34,35,35,37,37,38,38,39,39,41,41,42,42,43,43,44,44,47,47,49,49,50,50,51,51,52,52],"right_children":[2,4,6,8,10,12,14,16,18,20,22,24,26,28,30,32,-1,-1,-1,34,36,38,40,42,44,46,48,50,52,54,56,-1,-1,58,60,62,-1,64,66,68,-1,70,72,74,76,-1,-1,78,-1,80,82,84,86,-1,-1,-1,-1,-1,-1,-1,-1,-1,-1,-1,-1,-1,-1,-1,-1,-1,-1,-1,-1,-1,-1,-1,-1,-1,-1,-1,-1,-1,-1,-1,-1,-1,-1],"split_conditions":[5.829766E2,3.733056E2,8.1133575E2,2.0944116E2,4.4478455E2,7.4387634E2,1.5686116E2,1.4722552E2,3.0527228E2,6.594017E2,5.620105E2,6.7242957E2,7.8284784E2,9.1571545E2,1.1946498E3,3.798221E2,-1.3271014E1,-1.1467406E1,-9.535571E0,4.389901E2,6.7242957E2,4.7950854E2,6.281015E2,2.3217177E2,7.082087E2,7.41861E2,8.661517E1,8.9675085E2,9.7177966E2,7.970544E2,1.0868877E3,-1.5044545E1,-6.273706E0,3.777028E2,7.801935E2,2.6085516E2,-4.463212E0,6E0,4.9782596E2,3E0,4.5673003E0,7.213139E2,6.992073E2,6.477012E2,6.839378E2,3.6534154E0,4.6056814E0,6.395669E2,9.465289E0,8.0677765E2,1.0866926E3,8.724138E2,1.4336238E2,1.6794334E1,1.1736104E1,1.6976366E1,2.4561945E1,-7.8234763E0,-6.7857056E0,-5.7045107E0,-1.114778E0,-9.283844E0,-1.4029876E1,-7.6585283E0,-4.30463E0,-3.5422103E0,-2.9167411E0,-1.6074542E0,-8.831515E0,3.0602485E-1,-1.6202303E0,-6.418111E0,-1.193744E0,1.2111131E0,1.7806548E0,2.3120122E0,2.858622E0,2.287146E0,5.839309E0,3.8743112E0,7.4634347E0,8.789069E0,1.1366778E1,6.8628654E0,1.0868392E1,1.2026826E1,1.3792104E1],"split_indices":[5,6,5,5,5,6,8,5,6,9,6,6,11,5,6,12,0,0,0,6,6,5,6,12,6,9,8,6,5,9,5,0,0,9,11,10,0,3,5,2,0,7,5,5,7,0,0,5,0,6,6,6,10,0,0,0,0,0,0,0,0,0,0,0,0,0,0,0,0,0,0,0,0,0,0,0,0,0,0,0,0,0,0,0,0,0,0],"split_type":[0,0,0,0,0,0,0,0,0,0,0,0,0,0,0,0,0,0,0,0,0,0,0,0,0,0,0,0,0,0,0,0,0,0,0,0,0,0,0,0,0,0,0,0,0,0,0,0,0,0,0,0,0,0,0,0,0,0,0,0,0,0,0,0,0,0,0,0,0,0,0,0,0,0,0,0,0,0,0,0,0,0,0,0,0,0,0],"sum_hessian":[4.504E3,2.165E3,2.339E3,9.85E2,1.18E3,1.071E3,1.268E3,4.32E2,5.53E2,5.44E2,6.36E2,5.58E2,5.13E2,1.155E3,1.13E2,1.55E2,2.77E2,2.47E2,3.06E2,5.16E2,2.8E1,3.45E2,2.91E2,2.33E2,3.25E2,2.69E2,2.44E2,5.52E2,6.03E2,5.8E1,5.5E1,1.53E2,2E0,2.93E2,2.23E2,2.4E1,4E0,1.58E2,1.87E2,2.81E2,1E1,2.22E2,1.1E1,1.66E2,1.59E2,1.36E2,1.33E2,2.19E2,2.5E1,2.35E2,3.17E2,2.74E2,3.29E2,4.2E1,1.6E1,1.1E1,4.4E1,1.65E2,1.28E2,2.1E2,1.3E1,1.7E1,7E0,4E0,1.54E2,8.4E1,1.03E2,2.79E2,2E0,2.15E2,7E0,9E0,2E0,7.4E1,9.2E1,7E1,8.9E1,2E0,2.17E2,1.3E1,2.22E2,3.03E2,1.4E1,1.2E1,2.62E2,1.99E2,1.3E2],"tree_param":{"num_deleted":"0","num_feature":"13","num_nodes":"87","size_leaf_vector":"1"}},{"base_weights":[1.3820408E-1,-1.4327756E2,1.4794879E2,-2.1673976E2,-6.956145E1,8.110489E1,2.2351172E2,-2.5215004E2,-1.7660019E2,-1.0731683E2,-3.088269E1,4.0338745E1,1.2201042E2,2.0750264E2,3.9887424E2,-1.3517471E1,-1.13855505E1,-9.635554E0,-1.564148E2,-1.265223E2,-8.698961E1,-5.049988E1,-2.8339434E0,1.7409647E1,5.861517E1,9.758328E1,1.3966463E2,1.7926422E2,2.3859311E2,4.2697412E2,1.1870158E1,-4.694741E1,-1.599118E2,-1.2458266E2,-1.1824276E1,-4.8536716E0,-3.8465703E0,-4.715187E1,-7.6962714E0,8.981889E1,-9.59016E0,2.1216953E1,-7.208723E1,4.772335E1,6.902266E1,4.372527E0,1.0504576E2,1.335973E2,2.1721564E2,1.6109557E2,1.9576509E2,2.3213353E2,3.1357596E2,1.5713778E1,2.293602E1,-3.4298997E0,9.609874E-1,-8.104994E0,-3.2430713E0,-6.6357193E0,-5.733856E0,-2.816323E0,-1.8928801E0,9.552684E-1,4.9278083E0,-8.537131E0,-3.659026E-1,5.7105255E-1,1.4952086E0,6.612259E-1,-4.0970426E0,2.0693514E0,2.5890234E0,3.0650012E0,3.651856E0,2.210907E0,5.2805495E0,6.1518016E0,7.1988435E0,7.443096E0,1.2187342E1,8.170022E0,3.6050375E0,1.2684437E1,9.59697E0,1.0931551E1,1.2429469E1,3.4742143E0,1.5951622E1],"categories":[],"categories_nodes":[],"categories_segments":[],"categories_sizes":[],"default_left":[0,0,0,0,0,0,0,0,0,0,0,0,0,0,0,0,0,0,0,0,0,0,0,0,0,0,0,0,0,0,0,0,0,0,0,0,0,0,0,0,0,0,0,0,0,0,0,0,0,0,0,0,0,0,0,0,0,0,0,0,0,0,0,0,0,0,0,0,0,0,0,0,0,0,0,0,0,0,0,0,0,0,0,0,0,0,0,0,0],"id":10,"left_children":[1,3,5,7,9,11,13,15,17,19,21,23,25,27,29,-1,-1,-1,31,33,35,37,39,41,43,45,47,49,51,53,-1,55,57,59,-1,-1,-1,61,-1,63,65,67,69,71,73,-1,75,77,79,81,83,85,87,-1,-1,-1,-1,-1,-1,-1,-1,-1,-1,-1,-1,-1,-1,-1,-1,-1,-1,-1,-1,-1,-1,-1,-1,-1,-1,-1,-1,-1,-1,-1,-1,-1,-1,-1,-1],"loss_changes":[9.551984E7,1.2369828E7,1.1189868E7,1.58292E6,1.665844E6,1.961132E6,2.839728E6,2.07968E5,1.45468E5,2.146415E5,3.1129138E5,2.4706419E5,2.39941E5,7.96544E5,2.88844E5,0E0,0E0,0E0,8.62815E4,3.3458E4,2.1337E4,1.0804994E5,1.4734131E5,9.148536E4,3.400025E4,9.7175E3,1.30489E5,1.19861E5,1.4614E5,1.13435E5,0E0,1.4211453E4,3.8776E4,8.301E3,0E0,0E0,0E0,2.54955E4,0E0,8.002539E3,7.893863E4,2.1273648E4,1.0330555E4,2.0729688E3,6.691875E2,0E0,1.09125E2,1.70355E4,5.426E3,3.86785E4,8.923E3,3.8972E4,2.17845E4,0E0,0E0,0E0,0E0,0E0,0E0,0E0,0E0,0E0,0E0,0E0,0E0,0E0,0E0,0E0,0E0,0E0,0E0,0E0,0E0,0E0,0E0,0E0,0E0,0E0,0E0,0E0,0E0,0E0,0E0,0E0,0E0,0E0,0E0,0E0,0E0],"parents":[2147483647,0,0,1,1,2,2,3,3,4,4,5,5,6,6,7,7,8,8,9,9,10,10,11,11,12,12,13,13,14,14,18,18,19,19,20,20,21,21,22,22,23,23,24,24,25,25,26,26,27,27,28,28,29,29,31,31,32,32,33,33,37,37,39,39,40,40,41,41,42,42,43,43,44,44,46,46,47,47,48,48,49,49,50,50,51,51,52,52],"right_children":[2,4,6,8,10,12,14,16,18,20,22,24,26,28,30,-1,-1,-1,32,34,36,38,40,42,44,46,48,50,52,54,-1,56,58,60,-1,-1,-1,62,-1,64,66,68,70,72,74,-1,76,78,80,82,84,86,88,-1,-1,-1,-1,-1,-1,-1,-1,-1,-1,-1,-1,-1,-1,-1,-1,-1,-1,-1,-1,-1,-1,-1,-1,-1,-1,-1,-1,-1,-1,-1,-1,-1,-1,-1,-1],"split_conditions":[6.092575E2,3.60543E2,8.5128674E2,2.903488E2,5.299182E2,7.771502E2,1.7336316E2,1.9027495E2,3.547479E2,4.2572336E2,6.021205E2,7.037654E2,8.3139124E2,9.5157513E2,2.1E1,-1.3517471E1,-1.13855505E1,-9.635554E0,2.8677466E2,2.2347517E2,4.562624E2,1.4336238E2,5.0708484E2,1.3306912E2,7.398552E2,7.801935E2,1.1589854E2,9.40432E2,1.1433843E3,1.0565469E3,1.1870158E1,4.8862466E2,6.827983E2,3.9486322E2,-1.1824276E1,-4.8536716E0,-3.8465703E0,5.65656E2,-7.6962714E0,1.2435244E2,5.5175885E2,6.75225E2,2.3217177E2,7.1898694E2,7.213139E2,4.372527E0,2E0,8.2654895E2,7.4342053E2,1.0512019E2,8.942993E2,9.970769E2,8.997622E2,1.5713778E1,2.293602E1,-3.4298997E0,9.609874E-1,-8.104994E0,-3.2430713E0,-6.6357193E0,-5.733856E0,-2.816323E0,-1.8928801E0,9.552684E-1,4.9278083E0,-8.537131E0,-3.659026E-1,5.7105255E-1,1.4952086E0,6.612259E-1,-4.0970426E0,2.0693514E0,2.5890234E0,3.0650012E0,3.651856E0,2.210907E0,5.2805495E0,6.1518016E0,7.1988435E0,7.443096E0,1.2187342E1,8.170022E0,3.6050375E0,1.2684437E1,9.59697E0,1.0931551E1,1.2429469E1,3.4742143E0,1.5951622E1],"split_indices":[5,5,5,6,6,6,8,5,6,5,6,6,6,5,1,0,0,0,7,8,5,10,7,10,6,11,8,6,5,5,0,6,6,5,0,0,0,6,0,8,5,6,12,6,9,0,2,7,5,8,7,9,6,0,0,0,0,0,0,0,0,0,0,0,0,0,0,0,0,0,0,0,0,0,0,0,0,0,0,0,0,0,0,0,0,0,0,0,0],"split_type":[0,0,0,0,0,0,0,0,0,0,0,0,0,0,0,0,0,0,0,0,0,0,0,0,0,0,0,0,0,0,0,0,0,0,0,0,0,0,0,0,0,0,0,0,0,0,0,0,0,0,0,0,0,0,0,0,0,0,0,0,0,0,0,0,0,0,0,0,0,0,0,0,0,0,0,0,0,0,0,0,0,0,0,0,0,0,0,0,0],"sum_hessian":[4.504E3,2.286E3,2.218E3,1.144E3,1.142E3,1.178E3,1.04E3,6.05E2,5.39E2,5.77E2,5.65E2,5.91E2,5.87E2,9.55E2,8.5E1,3.41E2,2.64E2,2.95E2,2.44E2,2.94E2,2.83E2,3.32E2,2.33E2,2.63E2,3.28E2,2.49E2,3.38E2,5.04E2,4.51E2,7.1E1,1.4E1,8E0,2.36E2,2.91E2,3E0,1.37E2,1.46E2,3.23E2,9E0,1.5E1,2.18E2,2.53E2,1E1,1.63E2,1.65E2,1.11E2,1.38E2,3.16E2,2.2E1,2.45E2,2.59E2,4.19E2,3.2E1,1.8E1,5.3E1,6E0,2E0,2.3E2,6E0,1.53E2,1.38E2,1.6E2,1.63E2,2E0,1.3E1,2E0,2.16E2,1.2E2,1.33E2,1E0,9E0,6.8E1,9.5E1,6.2E1,1.03E2,2E0,1.36E2,1.63E2,1.53E2,8E0,1.4E1,2.38E2,7E0,1.2E1,2.47E2,2.38E2,1.81E2,1E0,3.1E1],"tree_param":{"num_deleted":"0","num_feature":"13","num_nodes":"89","size_leaf_vector":"1"}},{"base_weights":[1.5027983E-1,-1.381733E2,1.3859662E2,-2.05945E2,-6.814014E1,7.1008965E1,2.0806879E2,-2.3958363E2,-1.6781361E2,-1.020079E2,-3.128516E1,3.4219006E1,1.10198586E2,3.479459E2,1.9012486E2,-1.2843575E1,-1.081842E1,-1.8310808E2,-1.4865047E2,-1.202782E2,-8.267076E1,-4.9150597E1,-5.8409677E0,1.1005815E1,5.051011E1,9.288596E1,1.3410768E2,2.6083853E2,4.0844385E2,1.6412936E2,2.2047324E2,-9.737947E0,-8.627151E0,-4.487438E1,-1.5196411E2,-1.1839589E2,-1.1380866E1,-9.2254906E1,-3.6555505E0,-4.5935886E1,-7.6316147E0,8.5695656E1,-1.2922255E1,-6.4541824E1,1.5173683E1,3.960748E1,6.0999504E1,4.173937E0,5.2326736E0,6.3004866E0,2.0494235E2,8.709678E0,1.360602E1,1.3780052E1,2.1520954E1,1.4651776E2,1.7828381E2,2.1064072E2,1.2185808E1,-3.2829049E0,9.2895406E-1,-7.417621E0,-1.1840242E1,-6.358193E0,-5.496844E0,-7.306623E0,-4.5194044E0,-2.7857378E0,-1.922593E0,4.8318872E0,1.4354981E0,-8.25256E0,-5.3108597E-1,-9.795972E-1,-4.509325E0,3.6007348E-1,1.157627E0,1.6985697E0,2.2457044E0,2.774989E0,3.3148415E0,4.104695E0,1.0656125E1,7.4258995E0,3.447317E0,9.05644E0,5.4426413E0,1.0658437E1,5.9549203E0],"categories":[],"categories_nodes":[],"categories_segments":[],"categories_sizes":[],"default_left":[0,0,0,0,0,0,0,0,0,0,0,0,0,0,0,0,0,0,0,0,0,0,0,0,0,0,0,0,0,0,0,0,0,0,0,0,0,0,0,0,0,0,0,0,0,0,0,0,0,0,0,0,0,0,0,0,0,0,0,0,0,0,0,0,0,0,0,0,0,0,0,0,0,0,0,0,0,0,0,0,0,0,0,0,0,0,0,0,0],"id":11,"left_children":[1,3,5,7,9,11,13,15,17,19,21,23,25,27,29,-1,-1,31,33,35,37,39,41,43,45,47,49,51,53,55,57,-1,-1,59,61,63,-1,65,-1,67,-1,69,71,73,75,77,79,-1,-1,-1,81,-1,-1,-1,-1,83,85,87,-1,-1,-1,-1,-1,-1,-1,-1,-1,-1,-1,-1,-1,-1,-1,-1,-1,-1,-1,-1,-1,-1,-1,-1,-1,-1,-1,-1,-1,-1,-1],"loss_changes":[8.629166E7,1.0684048E7,1.0559408E7,1.428472E6,1.382305E6,1.6441895E6,2.719888E6,1.87632E5,1.3105E5,1.942615E5,2.4199953E5,2.2294162E5,2.16446E5,5.52189E5,7.41688E5,0E0,0E0,2.831E3,7.74305E4,3.26545E4,1.927575E4,9.7112375E4,1.4435894E5,7.812314E4,3.7267625E4,2.71305E4,1.0610675E5,5.38425E3,9.1562E4,1.07244E5,5.1962E4,0E0,0E0,1.3089055E4,3.7491E4,7.67725E3,0E0,6.715E2,0E0,2.0179188E4,0E0,7.202211E3,7.034231E4,1.3218496E4,1.4654207E4,3.648375E3,1.4189375E3,0E0,0E0,0E0,4.61225E3,0E0,0E0,0E0,0E0,2.76195E4,3.7962E4,4.9823E4,0E0,0E0,0E0,0E0,0E0,0E0,0E0,0E0,0E0,0E0,0E0,0E0,0E0,0E0,0E0,0E0,0E0,0E0,0E0,0E0,0E0,0E0,0E0,0E0,0E0,0E0,0E0,0E0,0E0,0E0,0E0],"parents":[2147483647,0,0,1,1,2,2,3,3,4,4,5,5,6,6,7,7,8,8,9,9,10,10,11,11,12,12,13,13,14,14,17,17,18,18,19,19,20,20,21,21,22,22,23,23,24,24,25,25,26,26,27,27,28,28,29,29,30,30,33,33,34,34,35,35,37,37,39,39,41,41,42,42,43,43,44,44,45,45,46,46,50,50,55,55,56,56,57,57],"right_children":[2,4,6,8,10,12,14,16,18,20,22,24,26,28,30,-1,-1,32,34,36,38,40,42,44,46,48,50,52,54,56,58,-1,-1,60,62,64,-1,66,-1,68,-1,70,72,74,76,78,80,-1,-1,-1,82,-1,-1,-1,-1,84,86,88,-1,-1,-1,-1,-1,-1,-1,-1,-1,-1,-1,-1,-1,-1,-1,-1,-1,-1,-1,-1,-1,-1,-1,-1,-1,-1,-1,-1,-1,-1,-1],"split_conditions":[6.021205E2,3.60543E2,8.3925214E2,2.903488E2,5.299182E2,7.6940155E2,8.44378E2,1.9027495E2,3.547479E2,4.2572336E2,5.9766864E2,6.923702E2,8.410351E2,1.1138656E3,9.439978E2,-1.2843575E1,-1.081842E1,2.771304E2,2.8677466E2,2.2347517E2,4.562624E2,1.4988019E2,5.0708484E2,6.128233E2,7.09323E2,8.1027997E2,1.1589854E2,9.4397546E2,1.0355925E3,9.26199E2,1.0105232E3,-9.737947E0,-8.627151E0,4.8862466E2,7.311636E2,3.9108206E2,-1.1380866E1,3E0,-3.6555505E0,5.5881885E2,-7.6316147E0,8.3323486E2,5.5175885E2,2.3217177E2,6.6853906E2,6.704915E2,7.5071344E2,4.173937E0,5.2326736E0,6.3004866E0,6.3555536E2,8.709678E0,1.360602E1,1.3780052E1,2.1520954E1,1.0512019E2,2.0233652E2,9.957377E1,1.2185808E1,-3.2829049E0,9.2895406E-1,-7.417621E0,-1.1840242E1,-6.358193E0,-5.496844E0,-7.306623E0,-4.5194044E0,-2.7857378E0,-1.922593E0,4.8318872E0,1.4354981E0,-8.25256E0,-5.3108597E-1,-9.795972E-1,-4.509325E0,3.6007348E-1,1.157627E0,1.6985697E0,2.2457044E0,2.774989E0,3.3148415E0,4.104695E0,1.0656125E1,7.4258995E0,3.447317E0,9.05644E0,5.4426413E0,1.0658437E1,5.9549203E0],"split_indices":[5,5,5,6,6,6,9,5,6,5,6,6,6,6,5,0,0,5,7,8,5,10,7,6,11,6,8,6,5,6,5,0,0,6,9,5,0,2,0,6,0,11,5,12,6,5,6,0,0,0,5,0,0,0,0,8,10,8,0,0,0,0,0,0,0,0,0,0,0,0,0,0,0,0,0,0,0,0,0,0,0,0,0,0,0,0,0,0,0],"split_type":[0,0,0,0,0,0,0,0,0,0,0,0,0,0,0,0,0,0,0,0,0,0,0,0,0,0,0,0,0,0,0,0,0,0,0,0,0,0,0,0,0,0,0,0,0,0,0,0,0,0,0,0,0,0,0,0,0,0,0,0,0,0,0,0,0,0,0,0,0,0,0,0,0,0,0,0,0,0,0,0,0,0,0,0,0,0,0,0,0],"sum_hessian":[4.504E3,2.253E3,2.251E3,1.144E3,1.109E3,1.142E3,1.109E3,6.05E2,5.39E2,5.77E2,5.32E2,5.9E2,5.52E2,1.24E2,9.85E2,3.41E2,2.64E2,2.95E2,2.44E2,2.94E2,2.83E2,3.12E2,2.2E2,2.44E2,3.46E2,3.23E2,2.29E2,5.3E1,7.1E1,5.34E2,4.51E2,1.32E2,1.63E2,8E0,2.36E2,2.91E2,3E0,1.37E2,1.46E2,3.04E2,8E0,1.5E1,2.05E2,1.2E1,2.32E2,1.72E2,1.74E2,1.84E2,1.39E2,2.08E2,2.1E1,8E0,4.5E1,1.2E1,5.9E1,2.43E2,2.91E2,3.24E2,1.27E2,6E0,2E0,2.29E2,7E0,1.36E2,1.55E2,2E0,1.35E2,1.29E2,1.75E2,1.2E1,3E0,2E0,2.03E2,5E0,7E0,1.17E2,1.15E2,8.7E1,8.5E1,9.1E1,8.3E1,2E0,1.9E1,2.36E2,7E0,2.78E2,1.3E1,3.14E2,1E1],"tree_param":{"num_deleted":"0","num_feature":"13","num_nodes":"89","size_leaf_vector":"1"}},{"base_weights":[1.496714E-1,-1.3657098E2,1.2670386E2,-2.0415321E2,-7.8002396E1,5.298174E1,1.8888148E2,-2.3909145E2,-1.773951E2,-1.1422769E2,-4.581922E1,1.9327234E1,8.7105995E1,1.7406885E2,3.3743005E2,-2.5872003E2,-1.136084E1,-9.771892E0,-8.061839E0,-1.099375E2,-1.8435443E2,-6.3502335E1,-2.5791054E1,-9.2269295E-1,3.464917E1,6.9961044E1,1.0690452E2,1.4146654E2,2.0363011E2,2.6887595E2,4.036312E2,-1.3022353E1,-1.2798244E2,-1.12722176E2,-9.228758E0,-1.982512E2,-3.7610185E0,-7.4368126E1,-5.5073013E1,-2.9329424E1,3.8285031E0,4.3982587E0,-9.972682E1,2.5200993E1,4.3119236E1,3.0332906E0,3.9054112E0,9.960039E1,8.229852E0,1.2500269E2,1.5324011E2,1.8960689E2,2.2608452E2,1.4687665E1,1.0493579E1,1.7881758E1,2.4405708E1,-7.27078E0,-1.8920739E0,-6.341723E0,-4.9024177E0,-2.1613357E0,2.4486313E0,-8.245122E0,-1.2633655E1,-5.777353E0,-3.6311493E0,-2.352115E0,-2.9325645E0,-1.391473E0,-7.977474E0,2.8421718E-1,-1.5437902E0,-5.6747937E0,-1.0293864E0,1.2884432E0,-5.417837E-1,1.8774837E0,2.349544E0,1.9980795E0,4.998211E0,3.3497136E0,6.4041963E0,7.522855E0,9.971332E0,8.889095E0,1.0552686E1,1.1047011E1,1.4992081E1],"categories":[],"categories_nodes":[],"categories_segments":[],"categories_sizes":[],"default_left":[0,0,0,0,0,0,0,0,0,0,0,0,0,0,0,0,0,0,0,0,0,0,0,0,0,0,0,0,0,0,0,0,0,0,0,0,0,0,0,0,0,0,0,0,0,0,0,0,0,0,0,0,0,0,0,0,0,0,0,0,0,0,0,0,0,0,0,0,0,0,0,0,0,0,0,0,0,0,0,0,0,0,0,0,0,0,0,0,0],"id":12,"left_children":[1,3,5,7,9,11,13,15,17,19,21,23,25,27,29,31,-1,-1,-1,33,35,37,39,41,43,45,47,49,51,53,55,-1,57,59,61,63,-1,65,67,69,-1,71,73,75,77,-1,-1,79,-1,81,83,85,87,-1,-1,-1,-1,-1,-1,-1,-1,-1,-1,-1,-1,-1,-1,-1,-1,-1,-1,-1,-1,-1,-1,-1,-1,-1,-1,-1,-1,-1,-1,-1,-1,-1,-1,-1,-1],"loss_changes":[7.7965384E7,8.557528E6,1.071624E7,8.97144E5,1.3494785E6,1.2294388E6,2.733568E6,4.2138E4,1.3554E5,1.44001E5,2.1687925E5,1.67887E5,1.7310525E5,1.085308E6,4.08845E5,1.89E3,0E0,0E0,0E0,1.43948E5,3.058575E4,2.5854625E4,1.0764347E5,1.2345992E5,2.3561562E4,1.7071625E4,8.68475E4,8.8037E4,1.47324E5,2.4954E4,4.3043E4,0E0,7.8302734E2,9.17255E4,3.1797846E4,5.521E3,0E0,1.6695E3,2.6433125E3,5.064153E4,0E0,1.0291999E4,1.0739414E4,3.307914E3,1.7071875E3,0E0,0E0,7.79E2,0E0,3.360125E4,1.08705E4,5.8342E4,1.9883E4,0E0,0E0,0E0,0E0,0E0,0E0,0E0,0E0,0E0,0E0,0E0,0E0,0E0,0E0,0E0,0E0,0E0,0E0,0E0,0E0,0E0,0E0,0E0,0E0,0E0,0E0,0E0,0E0,0E0,0E0,0E0,0E0,0E0,0E0,0E0,0E0],"parents":[2147483647,0,0,1,1,2,2,3,3,4,4,5,5,6,6,7,7,8,8,9,9,10,10,11,11,12,12,13,13,14,14,15,15,19,19,20,20,21,21,22,22,23,23,24,24,25,25,26,26,27,27,28,28,29,29,30,30,32,32,33,33,34,34,35,35,37,37,38,38,39,39,41,41,42,42,43,43,44,44,47,47,49,49,50,50,51,51,52,52],"right_children":[2,4,6,8,10,12,14,16,18,20,22,24,26,28,30,32,-1,-1,-1,34,36,38,40,42,44,46,48,50,52,54,56,-1,58,60,62,64,-1,66,68,70,-1,72,74,76,78,-1,-1,80,-1,82,84,86,88,-1,-1,-1,-1,-1,-1,-1,-1,-1,-1,-1,-1,-1,-1,-1,-1,-1,-1,-1,-1,-1,-1,-1,-1,-1,-1,-1,-1,-1,-1,-1,-1,-1,-1,-1,-1],"split_conditions":[5.829766E2,3.7740787E2,8.1133575E2,2.0944116E2,4.4879608E2,7.398552E2,1.5686116E2,1.4722552E2,3.0908743E2,6.594017E2,5.620105E2,6.7242957E2,7.8284784E2,9.1571545E2,1.1946498E3,4.0586093E2,-1.136084E1,-9.771892E0,-8.061839E0,7.801935E2,6.7242957E2,4.7950854E2,6.281015E2,2.3217177E2,7.037654E2,7.382952E2,8.661517E1,8.9675085E2,9.9229095E2,7.8509644E2,3E0,-1.3022353E1,2.903488E2,4.013377E2,2.9992075E2,2.6085516E2,-3.7610185E0,6E0,2E0,3E0,3.8285031E0,7.213139E2,6.992073E2,1.7336316E2,6.870367E2,3.0332906E0,3.9054112E0,6.395669E2,8.229852E0,8.0677765E2,1.0866926E3,9.754215E2,1.2042153E3,1.4687665E1,1.0493579E1,1.7881758E1,2.4405708E1,-7.27078E0,-1.8920739E0,-6.341723E0,-4.9024177E0,-2.1613357E0,2.4486313E0,-8.245122E0,-1.2633655E1,-5.777353E0,-3.6311493E0,-2.352115E0,-2.9325645E0,-1.391473E0,-7.977474E0,2.8421718E-1,-1.5437902E0,-5.6747937E0,-1.0293864E0,1.2884432E0,-5.417837E-1,1.8774837E0,2.349544E0,1.9980795E0,4.998211E0,3.3497136E0,6.4041963E0,7.522855E0,9.971332E0,8.889095E0,1.0552686E1,1.1047011E1,1.4992081E1],"split_indices":[5,6,5,5,5,6,8,5,6,9,6,6,11,5,6,10,0,0,0,11,6,5,6,12,6,9,8,6,5,9,2,0,6,9,5,10,0,3,2,2,0,7,5,8,9,0,0,5,0,6,6,9,5,0,0,0,0,0,0,0,0,0,0,0,0,0,0,0,0,0,0,0,0,0,0,0,0,0,0,0,0,0,0,0,0,0,0,0,0],"split_type":[0,0,0,0,0,0,0,0,0,0,0,0,0,0,0,0,0,0,0,0,0,0,0,0,0,0,0,0,0,0,0,0,0,0,0,0,0,0,0,0,0,0,0,0,0,0,0,0,0,0,0,0,0,0,0,0,0,0,0,0,0,0,0,0,0,0,0,0,0,0,0,0,0,0,0,0,0,0,0,0,0,0,0,0,0,0,0,0,0],"sum_hessian":[4.504E3,2.165E3,2.339E3,1.004E3,1.161E3,1.071E3,1.268E3,4.32E2,5.72E2,5.45E2,6.16E2,5.4E2,5.31E2,1.155E3,1.13E2,1.55E2,2.77E2,2.65E2,3.07E2,5.16E2,2.9E1,3.26E2,2.9E2,2.33E2,3.07E2,2.87E2,2.44E2,5.52E2,6.03E2,5.8E1,5.5E1,1.52E2,3E0,5.02E2,1.4E1,2.5E1,4E0,1.39E2,1.87E2,2.81E2,9E0,2.22E2,1.1E1,1.47E2,1.6E2,1.38E2,1.49E2,2.19E2,2.5E1,2.35E2,3.17E2,3.77E2,2.26E2,3.8E1,2E1,3.9E1,1.6E1,2E0,1E0,2.52E2,2.5E2,9E0,5E0,1.8E1,7E0,3E0,1.36E2,6.2E1,1.25E2,2.79E2,2E0,2.15E2,7E0,9E0,2E0,1.45E2,2E0,7E1,9E1,2E0,2.17E2,1.3E1,2.22E2,3.03E2,1.4E1,2.49E2,1.28E2,2.15E2,1.1E1],"tree_param":{"num_deleted":"0","num_feature":"13","num_nodes":"89","size_leaf_vector":"1"}},{"base_weights":[1.5376745E-1,-1.2299842E2,1.2707981E2,-1.8601613E2,-5.9762833E1,6.958773E1,1.9207124E2,-2.1637585E2,-1.5160129E2,-9.2118965E1,-2.6615116E1,3.5572712E1,1.05621895E2,1.787077E2,3.50367E2,-1.1814567E1,-9.97249E0,-1.6542723E2,-1.3427852E2,-1.07682976E2,-7.345861E1,-4.3642586E1,-2.269973E0,1.6301266E1,5.2193104E1,9.006638E1,1.2501752E2,1.548772E2,2.0662737E2,1.0924353E1,3.774395E2,-8.793769E0,-7.797268E0,-4.0552998E1,-1.3727113E2,-1.0599216E2,-1.05900345E1,-7.202165E1,-6.703168E0,-4.067889E1,-6.765107E0,7.800816E1,-8.124677E0,1.9401766E1,-6.2129482E1,4.292599E1,6.1085457E1,4.0573096E0,1.0116226E2,5.907573E0,1.8824254E2,1.398779E2,1.7107123E2,2.0003621E2,2.7503824E2,1.5396649E1,2.124386E1,-2.9897788E0,8.932007E-1,-6.694084E0,-1.0877938E1,-5.608693E0,-4.770469E0,-3.9638097E0,-3.2250168E0,-2.4203758E0,-1.6421798E0,7.939565E-1,4.2874756E0,-7.711558E0,-3.0336654E-1,5.5813867E-1,1.3870581E0,6.6207886E-1,-3.5495374E0,1.9159501E0,2.3504746E0,2.7643044E0,3.2459228E0,4.9165874E0,7.024514E0,6.345708E0,1.0624504E1,3.7740514E0,7.112858E0,1.1481996E1,8.341803E0,9.425007E0,1.0759414E1,2.8065383E0,1.398445E1],"categories":[],"categories_nodes":[],"categories_segments":[],"categories_sizes":[],"default_left":[0,0,0,0,0,0,0,0,0,0,0,0,0,0,0,0,0,0,0,0,0,0,0,0,0,0,0,0,0,0,0,0,0,0,0,0,0,0,0,0,0,0,0,0,0,0,0,0,0,0,0,0,0,0,0,0,0,0,0,0,0,0,0,0,0,0,0,0,0,0,0,0,0,0,0,0,0,0,0,0,0,0,0,0,0,0,0,0,0,0,0],"id":13,"left_children":[1,3,5,7,9,11,13,15,17,19,21,23,25,27,29,-1,-1,31,33,35,37,39,41,43,45,47,49,51,53,-1,55,-1,-1,57,59,61,-1,63,-1,65,-1,67,69,71,73,75,77,-1,79,-1,81,83,85,87,89,-1,-1,-1,-1,-1,-1,-1,-1,-1,-1,-1,-1,-1,-1,-1,-1,-1,-1,-1,-1,-1,-1,-1,-1,-1,-1,-1,-1,-1,-1,-1,-1,-1,-1,-1,-1],"loss_changes":[7.043428E7,9.102492E6,8.277916E6,1.16352E6,1.2234525E6,1.441346E6,2.139512E6,1.57148E5,1.07118E5,1.59958E5,2.3452847E5,1.93891E5,1.613175E5,6.08054E5,2.03159E5,0E0,0E0,1.897E3,6.31525E4,3.265275E4,1.3509375E4,8.4955875E4,1.1061489E5,7.002384E4,2.4242312E4,2.356275E4,8.7154E4,1.03107E5,1.43382E5,0E0,8.3486E4,0E0,0E0,1.1185034E4,3.53675E4,9.57775E3,0E0,9.182375E3,0E0,1.8030312E4,0E0,6.3337734E3,6.489379E4,1.844768E4,8.286746E3,1.2650938E3,5.65E1,0E0,1.65875E3,0E0,7.234375E3,3.17035E4,2.29555E4,3.0228E4,2.0952E4,0E0,0E0,0E0,0E0,0E0,0E0,0E0,0E0,0E0,0E0,0E0,0E0,0E0,0E0,0E0,0E0,0E0,0E0,0E0,0E0,0E0,0E0,0E0,0E0,0E0,0E0,0E0,0E0,0E0,0E0,0E0,0E0,0E0,0E0,0E0,0E0],"parents":[2147483647,0,0,1,1,2,2,3,3,4,4,5,5,6,6,7,7,8,8,9,9,10,10,11,11,12,12,13,13,14,14,17,17,18,18,19,19,20,20,21,21,22,22,23,23,24,24,25,25,26,26,27,27,28,28,30,30,33,33,34,34,35,35,37,37,39,39,41,41,42,42,43,43,44,44,45,45,46,46,48,48,50,50,51,51,52,52,53,53,54,54],"right_children":[2,4,6,8,10,12,14,16,18,20,22,24,26,28,30,-1,-1,32,34,36,38,40,42,44,46,48,50,52,54,-1,56,-1,-1,58,60,62,-1,64,-1,66,-1,68,70,72,74,76,78,-1,80,-1,82,84,86,88,90,-1,-1,-1,-1,-1,-1,-1,-1,-1,-1,-1,-1,-1,-1,-1,-1,-1,-1,-1,-1,-1,-1,-1,-1,-1,-1,-1,-1,-1,-1,-1,-1,-1,-1,-1,-1],"split_conditions":[6.092575E2,3.60543E2,8.5128674E2,2.903488E2,5.299182E2,7.807967E2,1.8022345E2,1.7467453E2,3.547479E2,4.2982562E2,6.021205E2,7.082087E2,8.500793E2,9.555867E2,1.0866926E3,-1.1814567E1,-9.97249E0,2.771304E2,2.8677466E2,2.2347517E2,1.3477701E2,1.4336238E2,5.0708484E2,1.3306912E2,7.4387634E2,7.810246E2,1.1589854E2,9.475636E2,1.1433843E3,1.0924353E1,9.861189E2,-8.793769E0,-7.797268E0,4.8862466E2,7.311636E2,4.02933E2,-1.05900345E1,5.000546E2,-6.703168E0,5.65656E2,-6.765107E0,1.2435244E2,5.5175885E2,6.792365E2,2.3217177E2,6.8503094E2,7.184604E2,4.0573096E0,9.8157947E2,5.907573E0,7.4342053E2,8.1361475E2,9.072254E2,9.999364E2,8.997622E2,1.5396649E1,2.124386E1,-2.9897788E0,8.932007E-1,-6.694084E0,-1.0877938E1,-5.608693E0,-4.770469E0,-3.9638097E0,-3.2250168E0,-2.4203758E0,-1.6421798E0,7.939565E-1,4.2874756E0,-7.711558E0,-3.0336654E-1,5.5813867E-1,1.3870581E0,6.6207886E-1,-3.5495374E0,1.9159501E0,2.3504746E0,2.7643044E0,3.2459228E0,4.9165874E0,7.024514E0,6.345708E0,1.0624504E1,3.7740514E0,7.112858E0,1.1481996E1,8.341803E0,9.425007E0,1.0759414E1,2.8065383E0,1.398445E1],"split_indices":[5,5,5,6,6,6,8,5,6,5,6,6,6,5,6,0,0,5,7,8,8,10,7,10,6,7,8,6,5,0,7,0,0,6,9,5,0,6,0,6,0,8,5,6,12,5,5,0,9,0,5,6,7,9,6,0,0,0,0,0,0,0,0,0,0,0,0,0,0,0,0,0,0,0,0,0,0,0,0,0,0,0,0,0,0,0,0,0,0,0,0],"split_type":[0,0,0,0,0,0,0,0,0,0,0,0,0,0,0,0,0,0,0,0,0,0,0,0,0,0,0,0,0,0,0,0,0,0,0,0,0,0,0,0,0,0,0,0,0,0,0,0,0,0,0,0,0,0,0,0,0,0,0,0,0,0,0,0,0,0,0,0,0,0,0,0,0,0,0,0,0,0,0,0,0,0,0,0,0,0,0,0,0,0,0],"sum_hessian":[4.504E3,2.286E3,2.218E3,1.144E3,1.142E3,1.178E3,1.04E3,6.05E2,5.39E2,5.77E2,5.65E2,6.07E2,5.71E2,9.61E2,7.9E1,2.72E2,3.33E2,2.95E2,2.44E2,3.12E2,2.65E2,3.32E2,2.33E2,2.82E2,3.25E2,3.2E2,2.51E2,5.22E2,4.39E2,1.5E1,6.4E1,1.32E2,1.63E2,8E0,2.36E2,3.09E2,3E0,2.61E2,4E0,3.23E2,9E0,1.5E1,2.18E2,2.72E2,1E1,1.62E2,1.63E2,1.82E2,1.38E2,2.29E2,2.2E1,2.76E2,2.46E2,4.04E2,3.5E1,2.9E1,3.5E1,6E0,2E0,2.29E2,7E0,1.89E2,1.2E2,1.28E2,1.33E2,1.6E2,1.63E2,2E0,1.3E1,2E0,2.16E2,1.38E2,1.34E2,1E0,9E0,8.1E1,8.1E1,7.1E1,9.2E1,1.32E2,6E0,8E0,1.4E1,1.1E1,2.65E2,1.3E1,2.33E2,2.37E2,1.67E2,1E0,3.4E1],"tree_param":{"num_deleted":"0","num_feature":"13","num_nodes":"91","size_leaf_vector":"1"}},{"base_weights":[1.5868627E-1,-1.2447342E2,1.13489334E2,-1.8548474E2,-7.255125E1,4.6919E1,1.7068501E2,-2.1720343E2,-1.619546E2,-1.0514493E2,-4.3643456E1,1.5839002E1,7.78564E1,1.5721935E2,3.0573447E2,-2.3630133E2,-1.0350759E1,-8.947034E0,-1.485055E2,-1.01485535E2,-1.6675739E2,-6.0457542E1,-2.6357054E1,-2.2956238E0,2.9549397E1,6.1717274E1,9.596097E1,1.2682137E2,1.8320338E2,2.4350066E2,3.6584265E2,-1.1903965E1,-1.172193E2,-7.748067E0,-6.870468E0,-1.1266128E2,-8.1494514E1,-1.4223114E2,-1.2801854E1,-5.896007E1,-6.3500896E0,-2.9900038E1,3.5688748E0,2.2859561E0,-9.6217575E1,2.037909E1,3.703548E1,2.6087787E0,3.408194E0,8.947837E1,7.493277E0,1.1280803E2,1.3730585E2,1.7336089E2,2.1094843E2,1.3122508E1,9.062299E0,1.5639206E1,2.1418541E1,-6.6346016E0,-1.770028E0,-6.0150504E0,-5.1371264E0,-4.320806E0,-6.9009805E-1,-7.5057483E0,-1.7189066E0,-3.3504727E0,-2.5670872E0,-1.4149078E0,-6.98814E0,1.74144E-1,-1.3480096E0,-5.587711E0,-8.7675583E-1,8.489397E-1,1.2371591E0,1.8835033E0,-5.423289E-1,4.0332437E0,4.712151E0,5.458237E0,8.853732E0,6.732858E0,9.108737E0,8.023187E0,9.623137E0,1.0221256E1,1.3663991E1],"categories":[],"categories_nodes":[],"categories_segments":[],"categories_sizes":[],"default_left":[0,0,0,0,0,0,0,0,0,0,0,0,0,0,0,0,0,0,0,0,0,0,0,0,0,0,0,0,0,0,0,0,0,0,0,0,0,0,0,0,0,0,0,0,0,0,0,0,0,0,0,0,0,0,0,0,0,0,0,0,0,0,0,0,0,0,0,0,0,0,0,0,0,0,0,0,0,0,0,0,0,0,0,0,0,0,0,0,0],"id":14,"left_children":[1,3,5,7,9,11,13,15,17,19,21,23,25,27,29,31,-1,-1,33,35,37,39,41,43,45,47,49,51,53,55,57,-1,59,-1,-1,61,63,65,-1,67,-1,69,-1,71,73,75,77,-1,-1,79,-1,81,83,85,87,-1,-1,-1,-1,-1,-1,-1,-1,-1,-1,-1,-1,-1,-1,-1,-1,-1,-1,-1,-1,-1,-1,-1,-1,-1,-1,-1,-1,-1,-1,-1,-1,-1,-1],"loss_changes":[6.3645616E7,6.784728E6,8.977774E6,7.0072E5,1.0893185E6,1.0487625E6,2.259652E6,3.222E4,1.03643E5,1.059545E5,1.7774088E5,1.3582138E5,1.5390625E5,8.89846E5,3.37365E5,1.3105E3,0E0,0E0,1.916E3,1.06324E5,2.7084688E4,2.3602E4,1.0809341E5,1.0177332E5,2.0595312E4,1.4404875E4,7.604725E4,6.3261E4,1.33012E5,2.2034E4,5.1801E4,0E0,3.6646484E2,0E0,0E0,1.257075E4,6.1773625E4,1.60966875E4,0E0,1.538575E4,0E0,4.8137125E4,0E0,8.005122E3,1.1487453E4,1.6870586E3,5.574078E3,0E0,0E0,2.098375E3,0E0,3.569275E4,1.13595E4,8.3428E4,8.3785E3,0E0,0E0,0E0,0E0,0E0,0E0,0E0,0E0,0E0,0E0,0E0,0E0,0E0,0E0,0E0,0E0,0E0,0E0,0E0,0E0,0E0,0E0,0E0,0E0,0E0,0E0,0E0,0E0,0E0,0E0,0E0,0E0,0E0,0E0],"parents":[2147483647,0,0,1,1,2,2,3,3,4,4,5,5,6,6,7,7,8,8,9,9,10,10,11,11,12,12,13,13,14,14,15,15,18,18,19,19,20,20,21,21,22,22,23,23,24,24,25,25,26,26,27,27,28,28,29,29,30,30,32,32,35,35,36,36,37,37,39,39,41,41,43,43,44,44,45,45,46,46,49,49,51,51,52,52,53,53,54,54],"right_children":[2,4,6,8,10,12,14,16,18,20,22,24,26,28,30,32,-1,-1,34,36,38,40,42,44,46,48,50,52,54,56,58,-1,60,-1,-1,62,64,66,-1,68,-1,70,-1,72,74,76,78,-1,-1,80,-1,82,84,86,88,-1,-1,-1,-1,-1,-1,-1,-1,-1,-1,-1,-1,-1,-1,-1,-1,-1,-1,-1,-1,-1,-1,-1,-1,-1,-1,-1,-1,-1,-1,-1,-1,-1,-1],"split_conditions":[5.785024E2,3.733056E2,8.1133575E2,2.0587537E2,4.4478455E2,7.363245E2,1.5686116E2,1.4312328E2,3.0170648E2,6.594017E2,5.547166E2,6.6853906E2,7.801935E2,9.1235126E2,1.1946498E3,4.0586093E2,-1.0350759E1,-8.947034E0,3.0348938E2,4.4701318E2,2.5453972E2,1.3477701E2,6.281015E2,1.548502E2,6.587331E2,7.311636E2,8.661517E1,8.9675085E2,1.0068768E3,7.970544E2,3.0493884E2,-1.1903965E1,2.903488E2,-7.748067E0,-6.870468E0,3.7193817E2,7.801935E2,6.827983E2,-1.2801854E1,5.187751E2,-6.3500896E0,1.4336238E2,3.5688748E0,1.07966156E2,6.992073E2,6.4701746E2,1.7336316E2,2.6087787E0,3.408194E0,7.810246E2,7.493277E0,9.9160724E2,1.0866926E3,9.7854156E2,1.2042153E3,1.3122508E1,9.062299E0,1.5639206E1,2.1418541E1,-6.6346016E0,-1.770028E0,-6.0150504E0,-5.1371264E0,-4.320806E0,-6.9009805E-1,-7.5057483E0,-1.7189066E0,-3.3504727E0,-2.5670872E0,-1.4149078E0,-6.98814E0,1.74144E-1,-1.3480096E0,-5.587711E0,-8.7675583E-1,8.489397E-1,1.2371591E0,1.8835033E0,-5.423289E-1,4.0332437E0,4.712151E0,5.458237E0,8.853732E0,6.732858E0,9.108737E0,8.023187E0,9.623137E0,1.0221256E1,1.3663991E1],"split_indices":[5,6,5,5,5,6,8,5,6,9,6,6,11,5,6,10,0,0,5,6,8,8,6,8,5,9,8,6,5,9,12,0,6,0,0,5,11,6,0,6,0,10,0,10,5,7,8,0,0,7,0,9,6,9,5,0,0,0,0,0,0,0,0,0,0,0,0,0,0,0,0,0,0,0,0,0,0,0,0,0,0,0,0,0,0,0,0,0,0],"split_type":[0,0,0,0,0,0,0,0,0,0,0,0,0,0,0,0,0,0,0,0,0,0,0,0,0,0,0,0,0,0,0,0,0,0,0,0,0,0,0,0,0,0,0,0,0,0,0,0,0,0,0,0,0,0,0,0,0,0,0,0,0,0,0,0,0,0,0,0,0,0,0,0,0,0,0,0,0,0,0,0,0,0,0,0,0,0,0,0,0],"sum_hessian":[4.504E3,2.145E3,2.359E3,9.85E2,1.16E3,1.091E3,1.268E3,4.16E2,5.69E2,5.44E2,6.16E2,5.45E2,5.46E2,1.155E3,1.13E2,1.37E2,2.79E2,2.46E2,3.23E2,5.16E2,2.8E1,3.11E2,3.05E2,2.35E2,3.1E2,2.91E2,2.55E2,5.35E2,6.2E2,5.8E1,5.5E1,1.34E2,3E0,1.96E2,1.27E2,3.28E2,1.88E2,2.4E1,4E0,3.06E2,5E0,2.95E2,1E1,2.25E2,1E1,1.41E2,1.69E2,1.21E2,1.7E2,2.3E2,2.5E1,2.34E2,3.01E2,4.63E2,1.57E2,4.2E1,1.6E1,3.3E1,2.2E1,2E0,1E0,1.79E2,1.49E2,1.75E2,1.3E1,2.2E1,2E0,1.45E2,1.61E2,2.92E2,3E0,2.17E2,8E0,8E0,2E0,8.2E1,5.9E1,1.67E2,2E0,8.7E1,1.43E2,2.24E2,1E1,2.88E2,1.3E1,2.82E2,1.81E2,1.46E2,1.1E1],"tree_param":{"num_deleted":"0","num_feature":"13","num_nodes":"89","size_leaf_vector":"1"}},{"base_weights":[1.5951116E-1,-1.127607E2,1.1317993E2,-1.6801582E2,-5.56617E1,6.118547E1,1.7360654E2,-1.9538777E2,-1.3698727E2,-8.323821E1,-2.5652538E1,2.9708256E1,9.453934E1,1.6144772E2,3.176463E2,-2.089142E2,-8.744104E0,-1.4783936E2,-1.1936559E2,-9.916735E1,-6.824971E1,-4.142373E1,-5.629372E0,1.2299736E1,4.5333244E1,7.557167E1,1.0824841E2,1.3913889E2,1.8569337E2,9.885971E0,3.422799E2,-1.1282889E1,-1.0006696E1,-7.8877993E0,-6.934953E0,-4.1333157E1,-1.2263767E2,-9.7404366E1,-9.77904E0,-7.598254E1,-2.9815881E0,-3.8587883E1,-6.409917E0,7.138755E1,-1.1179786E1,-4.863936E1,1.5486261E1,3.6952442E1,5.3339985E1,3.490767E0,4.175401E0,1.0240629E2,1.629893E2,1.3651787E2,1.1391651E1,1.7983084E2,2.4941997E2,1.38903675E1,1.9324965E1,-2.6772945E0,1.7145356E0,-5.942405E0,-9.983933E0,-5.2256813E0,-4.5697703E0,-6.3942537E0,-3.7234108E0,-2.2713661E0,-1.641284E0,4.0325274E0,1.1717964E0,-8.827647E0,-4.812788E-1,-3.9584744E0,-9.744663E-1,3.8095042E-1,1.1205549E0,1.5627276E0,1.988765E0,2.3399642E0,2.8122175E0,4.690458E0,5.511838E0,5.3916755E0,9.205952E0,5.9162116E0,7.321155E0,8.436651E0,9.679961E0,2.4808443E0,1.268555E1],"categories":[],"categories_nodes":[],"categories_segments":[],"categories_sizes":[],"default_left":[0,0,0,0,0,0,0,0,0,0,0,0,0,0,0,0,0,0,0,0,0,0,0,0,0,0,0,0,0,0,0,0,0,0,0,0,0,0,0,0,0,0,0,0,0,0,0,0,0,0,0,0,0,0,0,0,0,0,0,0,0,0,0,0,0,0,0,0,0,0,0,0,0,0,0,0,0,0,0,0,0,0,0,0,0,0,0,0,0,0,0],"id":15,"left_children":[1,3,5,7,9,11,13,15,17,19,21,23,25,27,29,31,-1,33,35,37,39,41,43,45,47,49,51,53,55,-1,57,-1,-1,-1,-1,59,61,63,-1,65,-1,67,-1,69,71,73,75,77,79,-1,-1,81,83,85,-1,87,89,-1,-1,-1,-1,-1,-1,-1,-1,-1,-1,-1,-1,-1,-1,-1,-1,-1,-1,-1,-1,-1,-1,-1,-1,-1,-1,-1,-1,-1,-1,-1,-1,-1,-1],"loss_changes":[5.7506868E7,7.102046E6,7.06482E6,9.45698E5,9.1644325E5,1.269654E6,1.771878E6,1.3155E5,8.5618E4,1.312315E5,1.6808244E5,1.6944738E5,1.447165E5,4.94502E5,1.686625E5,7.762E3,0E0,8.0305E3,4.880525E4,2.8203E4,1.5528E4,6.838478E4,1.01682375E5,5.8425875E4,2.0105812E4,5.590875E3,9.1722E4,8.6294E4,1.26254E5,0E0,7.7939E4,0E0,0E0,0E0,0E0,1.1071867E4,3.524275E4,2.1955E3,0E0,2.6590625E3,0E0,9.937781E3,0E0,5.2166875E3,5.5102992E4,1.1806352E4,1.52469375E4,1.3946875E3,5.2121875E2,0E0,0E0,1.04605E4,1.62740625E4,7.1519E4,0E0,3.1967E4,1.827675E4,0E0,0E0,0E0,0E0,0E0,0E0,0E0,0E0,0E0,0E0,0E0,0E0,0E0,0E0,0E0,0E0,0E0,0E0,0E0,0E0,0E0,0E0,0E0,0E0,0E0,0E0,0E0,0E0,0E0,0E0,0E0,0E0,0E0,0E0],"parents":[2147483647,0,0,1,1,2,2,3,3,4,4,5,5,6,6,7,7,8,8,9,9,10,10,11,11,12,12,13,13,14,14,15,15,17,17,18,18,19,19,20,20,21,21,22,22,23,23,24,24,25,25,26,26,27,27,28,28,30,30,35,35,36,36,37,37,39,39,41,41,43,43,44,44,45,45,46,46,47,47,48,48,51,51,52,52,53,53,55,55,56,56],"right_children":[2,4,6,8,10,12,14,16,18,20,22,24,26,28,30,32,-1,34,36,38,40,42,44,46,48,50,52,54,56,-1,58,-1,-1,-1,-1,60,62,64,-1,66,-1,68,-1,70,72,74,76,78,80,-1,-1,82,84,86,-1,88,90,-1,-1,-1,-1,-1,-1,-1,-1,-1,-1,-1,-1,-1,-1,-1,-1,-1,-1,-1,-1,-1,-1,-1,-1,-1,-1,-1,-1,-1,-1,-1,-1,-1,-1],"split_conditions":[6.021205E2,3.60543E2,8.5128674E2,2.903488E2,5.299182E2,7.771502E2,1.8022345E2,1.9428648E2,3.6236624E2,4.2205252E2,5.9437177E2,7.037654E2,8.3139124E2,9.5157513E2,1.0866926E3,1.3946217E2,-8.744104E0,2.8120306E2,3.2109555E2,2.2347517E2,4.562624E2,1.4988019E2,5.0708484E2,6.312921E2,7.398552E2,8.1027997E2,2.5070119E2,1.00892786E3,1.1433843E3,9.885971E0,9.861189E2,-1.1282889E1,-1.0006696E1,-7.8877993E0,-6.934953E0,2.9217203E2,7.311636E2,3.869798E2,-9.77904E0,3E0,-2.9815881E0,5.5881885E2,-6.409917E0,8.3323486E2,5.369402E2,8.7993463E2,6.7242957E2,6.771007E2,7.110583E2,3.490767E0,4.175401E0,8.655576E2,7.3658344E2,9.26199E2,1.1391651E1,9.970769E2,8.997622E2,1.38903675E1,1.9324965E1,-2.6772945E0,1.7145356E0,-5.942405E0,-9.983933E0,-5.2256813E0,-4.5697703E0,-6.3942537E0,-3.7234108E0,-2.2713661E0,-1.641284E0,4.0325274E0,1.1717964E0,-8.827647E0,-4.812788E-1,-3.9584744E0,-9.744663E-1,3.8095042E-1,1.1205549E0,1.5627276E0,1.988765E0,2.3399642E0,2.8122175E0,4.690458E0,5.511838E0,5.3916755E0,9.205952E0,5.9162116E0,7.321155E0,8.436651E0,9.679961E0,2.4808443E0,1.268555E1],"split_indices":[5,5,5,6,6,6,8,5,6,5,6,6,6,5,6,5,0,5,7,8,5,10,7,6,6,6,12,9,5,0,7,0,0,0,0,5,9,5,0,2,0,6,0,11,5,11,6,7,5,0,0,6,5,6,0,9,6,0,0,0,0,0,0,0,0,0,0,0,0,0,0,0,0,0,0,0,0,0,0,0,0,0,0,0,0,0,0,0,0,0,0],"split_type":[0,0,0,0,0,0,0,0,0,0,0,0,0,0,0,0,0,0,0,0,0,0,0,0,0,0,0,0,0,0,0,0,0,0,0,0,0,0,0,0,0,0,0,0,0,0,0,0,0,0,0,0,0,0,0,0,0,0,0,0,0,0,0,0,0,0,0,0,0,0,0,0,0,0,0,0,0,0,0,0,0,0,0,0,0,0,0,0,0,0,0],"sum_hessian":[4.504E3,2.253E3,2.251E3,1.144E3,1.109E3,1.211E3,1.04E3,6.05E2,5.39E2,5.77E2,5.32E2,6.24E2,5.87E2,9.61E2,7.9E1,3.59E2,2.46E2,3.29E2,2.1E2,2.77E2,3E2,2.97E2,2.35E2,2.96E2,3.28E2,2.49E2,3.38E2,5.04E2,4.57E2,1.5E1,6.4E1,1.15E2,2.44E2,1.5E2,1.79E2,9E0,2.01E2,2.74E2,3E0,1.54E2,1.46E2,2.89E2,8E0,1.5E1,2.2E2,1.4E1,2.82E2,1.63E2,1.65E2,1.5E2,9.9E1,3.08E2,3E1,4.92E2,1.2E1,4.22E2,3.5E1,2.9E1,3.5E1,8E0,1E0,1.94E2,7E0,1.18E2,1.56E2,2E0,1.52E2,1.29E2,1.6E2,1.2E1,3E0,1E0,2.19E2,6E0,8E0,1.33E2,1.49E2,5.8E1,1.05E2,5.6E1,1.09E2,1.53E2,1.55E2,1E1,2E1,1.78E2,3.14E2,2.41E2,1.81E2,1E0,3.4E1],"tree_param":{"num_deleted":"0","num_feature":"13","num_nodes":"91","size_leaf_vector":"1"}},{"base_weights":[1.5817495E-1,-1.1245526E2,1.0255999E2,-1.6752045E2,-6.5593315E1,4.2404797E1,1.5424393E2,-1.9627245E2,-1.4619218E2,-9.502434E1,-3.9490406E1,1.4334903E1,7.034585E1,2.747804E2,1.4176341E2,-2.1373508E2,-9.348245E0,-8.030581E0,-6.6658106E0,-9.35283E1,-1.189452E1,-5.4600525E1,-2.3954956E1,-9.629149E1,1.6158886E1,5.5724358E1,8.67487E1,2.2568257E2,3.3931238E2,1.13805626E2,1.6548608E2,-1.0765498E1,-1.0714871E2,-5.3238845E0,-8.3971054E1,-5.3193047E1,-5.875822E0,-2.716965E1,3.236361E0,-2.125468E0,-5.804883E0,3.2880435E0,2.8274414E1,2.3723228E0,3.0904143E0,8.07725E1,6.825425E0,8.478968E0,1.195827E1,1.3041773E1,1.9015997E1,9.992922E1,1.2179804E2,1.5702971E2,1.9367993E2,-6.037351E0,-1.6588448E0,-3.9907532E0,-6.45771E0,-3.038158E0,-2.3283997E0,-1.2832506E0,-6.5295997E0,2.1461594E-1,-2.4595082E0,1.027497E0,1.7338736E0,3.6692593E0,4.274105E0,5.124063E0,2.059621E0,6.20388E0,4.1010957E0,7.226542E0,8.714528E0,9.193648E0,1.2878949E1],"categories":[],"categories_nodes":[],"categories_segments":[],"categories_sizes":[],"default_left":[0,0,0,0,0,0,0,0,0,0,0,0,0,0,0,0,0,0,0,0,0,0,0,0,0,0,0,0,0,0,0,0,0,0,0,0,0,0,0,0,0,0,0,0,0,0,0,0,0,0,0,0,0,0,0,0,0,0,0,0,0,0,0,0,0,0,0,0,0,0,0,0,0,0,0,0,0],"id":16,"left_children":[1,3,5,7,9,11,13,15,17,19,21,23,25,27,29,31,-1,-1,-1,33,-1,35,37,39,41,43,45,47,49,51,53,-1,55,-1,57,59,-1,61,-1,-1,-1,63,65,-1,-1,67,-1,-1,-1,-1,-1,69,71,73,75,-1,-1,-1,-1,-1,-1,-1,-1,-1,-1,-1,-1,-1,-1,-1,-1,-1,-1,-1,-1,-1,-1],"loss_changes":[5.1962384E7,5.52668E6,7.330834E6,5.75952E5,8.88169E5,8.554499E5,1.870074E6,2.7815E4,8.4417E4,9.4234E4,1.4352825E5,1.1172817E5,1.2635525E5,2.97293E5,7.4521E5,9.45E1,0E0,0E0,0E0,5.80135E4,0E0,2.1377375E4,8.899492E4,4.6517188E3,8.380117E4,1.1773125E4,6.5101875E4,1.23925E4,5.8488E4,4.6831E4,1.17644E5,0E0,1.7554688E1,0E0,4.90305E4,1.25671875E4,0E0,4.2709875E4,0E0,0E0,0E0,1.401921E4,1.2987875E4,0E0,0E0,1.763625E3,0E0,0E0,0E0,0E0,0E0,2.5758E4,2.00165E4,7.9013E4,3.97435E4,0E0,0E0,0E0,0E0,0E0,0E0,0E0,0E0,0E0,0E0,0E0,0E0,0E0,0E0,0E0,0E0,0E0,0E0,0E0,0E0,0E0,0E0],"parents":[2147483647,0,0,1,1,2,2,3,3,4,4,5,5,6,6,7,7,8,8,9,9,10,10,11,11,12,12,13,13,14,14,15,15,19,19,21,21,22,22,23,23,24,24,25,25,26,26,27,27,28,28,29,29,30,30,32,32,34,34,35,35,37,37,41,41,42,42,45,45,51,51,52,52,53,53,54,54],"right_children":[2,4,6,8,10,12,14,16,18,20,22,24,26,28,30,32,-1,-1,-1,34,-1,36,38,40,42,44,46,48,50,52,54,-1,56,-1,58,60,-1,62,-1,-1,-1,64,66,-1,-1,68,-1,-1,-1,-1,-1,70,72,74,76,-1,-1,-1,-1,-1,-1,-1,-1,-1,-1,-1,-1,-1,-1,-1,-1,-1,-1,-1,-1,-1,-1],"split_conditions":[5.785024E2,3.733056E2,8.1133575E2,2.0587537E2,4.4478455E2,7.363245E2,8.1763446E2,1.4312328E2,3.0527228E2,2.7090335E2,5.547166E2,5.688466E2,7.801935E2,1.1946498E3,9.1235126E2,4.0586093E2,-9.348245E0,-8.030581E0,-6.6658106E0,4.2383542E2,-1.189452E1,1.3477701E2,6.281015E2,8.44378E2,6.75225E2,7.25241E2,8.661517E1,9.9436487E2,9.861189E2,8.8917346E2,1.0105232E3,-1.0765498E1,2.903488E2,-5.3238845E0,6.594017E2,4.847503E2,-5.875822E0,1.4336238E2,3.236361E0,-2.125468E0,-5.804883E0,1.860064E2,6.622989E2,2.3723228E0,3.0904143E0,7.813078E2,6.825425E0,8.478968E0,1.195827E1,1.3041773E1,1.9015997E1,1.078254E2,2.0233652E2,9.7854156E2,1.2042153E3,-6.037351E0,-1.6588448E0,-3.9907532E0,-6.45771E0,-3.038158E0,-2.3283997E0,-1.2832506E0,-6.5295997E0,2.1461594E-1,-2.4595082E0,1.027497E0,1.7338736E0,3.6692593E0,4.274105E0,5.124063E0,2.059621E0,6.20388E0,4.1010957E0,7.226542E0,8.714528E0,9.193648E0,1.2878949E1],"split_indices":[5,6,5,5,5,6,9,5,6,8,6,6,11,6,5,10,0,0,0,6,0,8,6,9,6,7,8,6,7,6,5,0,6,0,9,9,0,10,0,0,0,8,5,0,0,5,0,0,0,0,0,8,10,9,5,0,0,0,0,0,0,0,0,0,0,0,0,0,0,0,0,0,0,0,0,0,0],"split_type":[0,0,0,0,0,0,0,0,0,0,0,0,0,0,0,0,0,0,0,0,0,0,0,0,0,0,0,0,0,0,0,0,0,0,0,0,0,0,0,0,0,0,0,0,0,0,0,0,0,0,0,0,0,0,0,0,0,0,0,0,0,0,0,0,0,0,0,0,0,0,0,0,0,0,0,0,0],"sum_hessian":[4.504E3,2.145E3,2.359E3,9.85E2,1.16E3,1.091E3,1.268E3,4.16E2,5.69E2,5.44E2,6.16E2,5.45E2,5.46E2,1.17E2,1.151E3,1.37E2,2.79E2,2.63E2,3.06E2,5.4E2,4E0,3.11E2,3.05E2,8E0,5.37E2,2.91E2,2.55E2,6.9E1,4.8E1,5.31E2,6.2E2,1.34E2,3E0,2.25E2,3.15E2,3.06E2,5E0,2.95E2,1E1,3E0,5E0,2.61E2,2.76E2,1.27E2,1.64E2,2.3E2,2.5E1,1.6E1,5.3E1,1.9E1,2.9E1,1.99E2,3.32E2,4.82E2,1.38E2,2E0,1E0,2.91E2,2.4E1,1.39E2,1.67E2,2.92E2,3E0,2.57E2,4E0,1.27E2,1.49E2,9.6E1,1.34E2,1.9E2,9E0,3.12E2,2E1,2.85E2,1.97E2,1.23E2,1.5E1],"tree_param":{"num_deleted":"0","num_feature":"13","num_nodes":"77","size_leaf_vector":"1"}},{"base_weights":[1.5799488E-1,-1.03512856E2,1.0065703E2,-1.5660765E2,-5.667471E1,5.069679E1,1.5363222E2,-1.8146446E2,-1.3183147E2,-8.403494E1,-3.0176191E1,2.2343033E1,7.954635E1,2.6067587E2,1.4027231E2,-9.895431E0,-8.490401E0,-7.1483684E0,-5.9029155E0,-8.030074E1,-1.475761E2,-4.2702507E1,-9.785037E0,4.3989587E0,3.3848736E1,6.472988E1,9.607326E1,1.9418639E2,3.07294E2,1.1797689E2,1.5975249E2,-9.032471E1,-5.812065E1,-1.5957878E2,-5.324632E1,-4.1028835E1,-5.2824225E0,-1.3771862E1,7.0841E1,8.24902E0,-4.226006E1,2.5105976E1,4.203348E1,2.7814631E0,7.104407E1,9.058199E1,1.5485583E2,5.6041245E0,1.002019E1,9.926612E0,1.6318672E1,1.1498803E2,1.8208435E2,1.5063943E2,1.7773715E2,-4.9631777E0,-4.144968E0,-3.172883E0,6.428765E-1,-6.54565E0,-1.0564796E1,-2.9349911E0,-7.858078E-1,-2.4392638E0,-1.6951889E0,-8.443716E0,-6.146258E-1,2.204706E0,4.7059226E0,1.3661218E-1,6.6047543E-1,-3.1905377E0,-1.3083576E0,9.589596E-1,1.4213651E0,1.8890841E0,2.2812994E0,1.4231222E0,3.5681305E0,4.235871E0,4.8835654E0,5.1452785E0,8.859565E0,5.350529E0,6.5190797E0,1.2369736E0,9.472567E0,7.3806496E0,1.1242214E1,1.2198733E1,8.490211E0],"categories":[],"categories_nodes":[],"categories_segments":[],"categories_sizes":[],"default_left":[0,0,0,0,0,0,0,0,0,0,0,0,0,0,0,0,0,0,0,0,0,0,0,0,0,0,0,0,0,0,0,0,0,0,0,0,0,0,0,0,0,0,0,0,0,0,0,0,0,0,0,0,0,0,0,0,0,0,0,0,0,0,0,0,0,0,0,0,0,0,0,0,0,0,0,0,0,0,0,0,0,0,0,0,0,0,0,0,0,0,0],"id":17,"left_children":[1,3,5,7,9,11,13,15,17,19,21,23,25,27,29,-1,-1,-1,-1,31,33,35,37,39,41,43,45,47,49,51,53,55,57,59,61,63,-1,65,67,69,71,73,75,-1,77,79,81,-1,-1,-1,-1,83,85,87,89,-1,-1,-1,-1,-1,-1,-1,-1,-1,-1,-1,-1,-1,-1,-1,-1,-1,-1,-1,-1,-1,-1,-1,-1,-1,-1,-1,-1,-1,-1,-1,-1,-1,-1,-1,-1],"loss_changes":[4.694721E7,5.506982E6,6.047752E6,6.15954E5,8.5297125E5,9.6263675E5,1.55084E6,6.53E4,6.349E4,1.2576925E5,1.5309325E5,1.2290078E5,1.367855E5,3.184805E5,4.10694E5,0E0,0E0,0E0,0E0,1.1703325E5,2.6601562E4,3.4855875E4,7.490725E4,4.2384383E4,2.492E4,1.391875E4,7.44175E4,4.5935E3,8.0462E4,6.81605E4,5.9271E4,1.6794E4,6.6729125E4,1.23665E4,1.0081738E2,1.84625E4,0E0,4.840315E4,2.6985234E3,5.9023115E3,4.5728926E3,2.9586875E3,1.11725E3,0E0,4.10375E2,2.24425E3,7.293375E3,0E0,0E0,0E0,0E0,4.09405E4,1.7337E4,4.65345E4,4.84255E4,0E0,0E0,0E0,0E0,0E0,0E0,0E0,0E0,0E0,0E0,0E0,0E0,0E0,0E0,0E0,0E0,0E0,0E0,0E0,0E0,0E0,0E0,0E0,0E0,0E0,0E0,0E0,0E0,0E0,0E0,0E0,0E0,0E0,0E0,0E0,0E0],"parents":[2147483647,0,0,1,1,2,2,3,3,4,4,5,5,6,6,7,7,8,8,9,9,10,10,11,11,12,12,13,13,14,14,19,19,20,20,21,21,22,22,23,23,24,24,25,25,26,26,27,27,28,28,29,29,30,30,31,31,32,32,33,33,34,34,35,35,37,37,38,38,39,39,40,40,41,41,42,42,44,44,45,45,46,46,51,51,52,52,53,53,54,54],"right_children":[2,4,6,8,10,12,14,16,18,20,22,24,26,28,30,-1,-1,-1,-1,32,34,36,38,40,42,44,46,48,50,52,54,56,58,60,62,64,-1,66,68,70,72,74,76,-1,78,80,82,-1,-1,-1,-1,84,86,88,90,-1,-1,-1,-1,-1,-1,-1,-1,-1,-1,-1,-1,-1,-1,-1,-1,-1,-1,-1,-1,-1,-1,-1,-1,-1,-1,-1,-1,-1,-1,-1,-1,-1,-1,-1,-1],"split_conditions":[5.9391595E2,3.8505725E2,8.3925214E2,2.2727022E2,4.635553E2,7.625644E2,8.375446E2,1.5907411E2,3.3157013E2,6.594017E2,5.8652545E2,6.827983E2,8.3139124E2,1.1138656E3,9.292888E2,-9.895431E0,-8.490401E0,-7.1483684E0,-5.9029155E0,4.3698434E2,6.7242957E2,1.4336238E2,6.386754E2,1.1455116E2,6.810194E2,7.920052E2,1.1589854E2,9.065993E2,1.0355925E3,1.0058777E3,9.999364E2,3.8948672E2,5.0685693E2,2.6085516E2,3.110667E2,5.0228323E2,-5.2824225E0,5.369402E2,1.6E1,6.578416E2,5.65656E2,6.576188E2,7.0308167E2,2.7814631E0,2E0,8.22503E2,7.4342053E2,5.6041245E0,1.002019E1,9.926612E0,1.6318672E1,4E0,3E0,1.2042153E3,9.861189E2,-4.9631777E0,-4.144968E0,-3.172883E0,6.428765E-1,-6.54565E0,-1.0564796E1,-2.9349911E0,-7.858078E-1,-2.4392638E0,-1.6951889E0,-8.443716E0,-6.146258E-1,2.204706E0,4.7059226E0,1.3661218E-1,6.6047543E-1,-3.1905377E0,-1.3083576E0,9.589596E-1,1.4213651E0,1.8890841E0,2.2812994E0,1.4231222E0,3.5681305E0,4.235871E0,4.8835654E0,5.1452785E0,8.859565E0,5.350529E0,6.5190797E0,1.2369736E0,9.472567E0,7.3806496E0,1.1242214E1,1.2198733E1,8.490211E0],"split_indices":[5,6,5,5,5,6,9,5,6,9,6,6,6,6,5,0,0,0,0,9,6,10,6,10,5,6,8,6,5,9,9,9,6,10,5,5,0,5,1,6,6,7,7,0,2,7,5,0,0,0,0,2,1,5,7,0,0,0,0,0,0,0,0,0,0,0,0,0,0,0,0,0,0,0,0,0,0,0,0,0,0,0,0,0,0,0,0,0,0,0,0],"split_type":[0,0,0,0,0,0,0,0,0,0,0,0,0,0,0,0,0,0,0,0,0,0,0,0,0,0,0,0,0,0,0,0,0,0,0,0,0,0,0,0,0,0,0,0,0,0,0,0,0,0,0,0,0,0,0,0,0,0,0,0,0,0,0,0,0,0,0,0,0,0,0,0,0,0,0,0,0,0,0,0,0,0,0,0,0,0,0,0,0,0,0],"sum_hessian":[4.504E3,2.217E3,2.287E3,1.038E3,1.179E3,1.178E3,1.109E3,5.15E2,5.23E2,5.79E2,6E2,5.95E2,5.83E2,1.21E2,9.88E2,2.07E2,3.08E2,2.84E2,2.39E2,5.49E2,3E1,3.71E2,2.29E2,2.33E2,3.62E2,3.1E2,2.73E2,5.2E1,6.9E1,4.64E2,5.24E2,3.76E2,1.73E2,2.6E1,4E0,3.63E2,8E0,2.19E2,1E1,2.16E2,1.7E1,1.77E2,1.85E2,1.31E2,1.79E2,2.52E2,2.1E1,5E0,4.7E1,1.2E1,5.7E1,4.46E2,1.8E1,3.54E2,1.7E2,1.65E2,2.11E2,1.61E2,1.2E1,1.9E1,7E0,3E0,1E0,1.71E2,1.92E2,1E0,2.18E2,6E0,4E0,1.03E2,1.13E2,6E0,1.1E1,6.6E1,1.11E2,9E1,9.5E1,2E0,1.77E2,1.45E2,1.07E2,8E0,1.3E1,2.99E2,1.47E2,1E0,1.7E1,3.43E2,1.1E1,1.5E1,1.55E2],"tree_param":{"num_deleted":"0","num_feature":"13","num_nodes":"91","size_leaf_vector":"1"}},{"base_weights":[1.6386068E-1,-1.0157847E2,9.268033E1,-1.5128543E2,-5.9276447E1,4.145972E1,1.4224303E2,-1.7831065E2,-1.3261188E2,-8.584853E1,-3.5709084E1,1.5943729E1,6.962785E1,2.4939705E2,1.3042563E2,-1.9717845E2,-8.555169E0,-7.3222823E0,-1.20930626E2,-8.444328E1,-1.1036338E1,-4.7926403E1,-2.0036657E1,1.6960483E-2,2.8470875E1,6.5966225E1,1.3114133E2,2.104285E2,3.174495E2,1.05997345E2,1.4987303E2,-9.9610815E0,-9.629376E1,-6.3193026E0,-5.579481E0,-4.766467E0,-7.531367E1,-4.6528854E1,-5.057834E0,-2.3304123E1,2.980498E0,-8.905716E1,3.0766938E0,2.0356476E1,3.6098007E1,5.4863853E1,7.787057E1,5.221681E0,8.125004E0,8.944327E0,1.2027282E1,1.3491698E1,1.996248E1,1.08252914E2,6.21878E1,1.423718E2,1.7441864E2,-5.506259E0,-1.3699883E0,-3.8641183E0,-1.6454078E-1,-2.6964488E0,-1.9766258E0,-1.1065854E0,-8.232623E0,-1.9261166E0,-5.3952093E0,2.0096378E-1,-2.3087933E0,7.5888085E-1,1.1820841E0,1.5863899E0,1.9763149E0,2.457773E0,3.0686376E0,3.5826898E0,4.123762E0,4.8288183E0,5.990607E0,3.7130659E0,1.7722021E0,6.5318413E0,7.8836493E0,8.327687E0,1.1552939E1],"categories":[],"categories_nodes":[],"categories_segments":[],"categories_sizes":[],"default_left":[0,0,0,0,0,0,0,0,0,0,0,0,0,0,0,0,0,0,0,0,0,0,0,0,0,0,0,0,0,0,0,0,0,0,0,0,0,0,0,0,0,0,0,0,0,0,0,0,0,0,0,0,0,0,0,0,0,0,0,0,0,0,0,0,0,0,0,0,0,0,0,0,0,0,0,0,0,0,0,0,0,0,0,0,0],"id":18,"left_children":[1,3,5,7,9,11,13,15,17,19,21,23,25,27,29,31,-1,-1,33,35,-1,37,39,41,43,45,47,49,51,53,55,-1,57,-1,-1,-1,59,61,-1,63,-1,65,67,69,71,73,75,-1,-1,-1,-1,-1,-1,77,79,81,83,-1,-1,-1,-1,-1,-1,-1,-1,-1,-1,-1,-1,-1,-1,-1,-1,-1,-1,-1,-1,-1,-1,-1,-1,-1,-1,-1,-1],"loss_changes":[4.2414264E7,4.503436E6,5.985274E6,4.73944E5,7.23992E5,8.3406325E5,1.485744E6,2.0656E4,7.7147E4,8.4659E4,1.1717981E5,1.2190436E5,1.156815E5,2.46125E5,4.98136E5,2.25325E3,0E0,0E0,2.407E3,4.6588E4,0E0,2.1032875E4,7.217517E4,7.386062E4,2.0431406E4,6.48505E4,8.155125E3,3.1066E4,5.1962E4,4.09965E4,8.5641E4,0E0,7.942031E2,0E0,0E0,0E0,4.2141375E4,1.54193125E4,0E0,3.9774375E4,0E0,4.415164E3,1.234883E4,2.499461E3,1.3678281E3,7.1638125E3,1.24675E3,0E0,0E0,0E0,0E0,0E0,0E0,5.0246E4,5.7630547E3,6.2897E4,2.21E4,0E0,0E0,0E0,0E0,0E0,0E0,0E0,0E0,0E0,0E0,0E0,0E0,0E0,0E0,0E0,0E0,0E0,0E0,0E0,0E0,0E0,0E0,0E0,0E0,0E0,0E0,0E0,0E0],"parents":[2147483647,0,0,1,1,2,2,3,3,4,4,5,5,6,6,7,7,8,8,9,9,10,10,11,11,12,12,13,13,14,14,15,15,18,18,19,19,21,21,22,22,23,23,24,24,25,25,26,26,27,27,28,28,29,29,30,30,32,32,36,36,37,37,39,39,41,41,42,42,43,43,44,44,45,45,46,46,53,53,54,54,55,55,56,56],"right_children":[2,4,6,8,10,12,14,16,18,20,22,24,26,28,30,32,-1,-1,34,36,-1,38,40,42,44,46,48,50,52,54,56,-1,58,-1,-1,-1,60,62,-1,64,-1,66,68,70,72,74,76,-1,-1,-1,-1,-1,-1,78,80,82,84,-1,-1,-1,-1,-1,-1,-1,-1,-1,-1,-1,-1,-1,-1,-1,-1,-1,-1,-1,-1,-1,-1,-1,-1,-1,-1,-1,-1],"split_conditions":[5.785024E2,3.733056E2,8.2320605E2,2.0192232E2,4.4478455E2,7.5071344E2,8.2788617E2,1.3545064E2,3.0170648E2,2.7090335E2,5.620105E2,6.75225E2,8.661517E1,1.2276062E3,9.1571545E2,4.0586093E2,-8.555169E0,-7.3222823E0,3.0348938E2,4.2754657E2,-1.1036338E1,1.4988019E2,6.281015E2,5.688466E2,6.802913E2,7.698573E2,7.4342053E2,1.0866926E3,3E0,7.707681E1,1.0105232E3,-9.9610815E0,2.903488E2,-6.3193026E0,-5.579481E0,-4.766467E0,2.8695496E2,5.223544E2,-5.057834E0,2.30283E2,2.980498E0,8.44378E2,1.860064E2,6.504872E2,7.09323E2,7.4364844E2,8.1477576E2,5.221681E0,8.125004E0,8.944327E0,1.2027282E1,1.3491698E1,1.996248E1,8.844927E2,1.1150686E2,9.7854156E2,1.2042153E3,-5.506259E0,-1.3699883E0,-3.8641183E0,-1.6454078E-1,-2.6964488E0,-1.9766258E0,-1.1065854E0,-8.232623E0,-1.9261166E0,-5.3952093E0,2.0096378E-1,-2.3087933E0,7.5888085E-1,1.1820841E0,1.5863899E0,1.9763149E0,2.457773E0,3.0686376E0,3.5826898E0,4.123762E0,4.8288183E0,5.990607E0,3.7130659E0,1.7722021E0,6.5318413E0,7.8836493E0,8.327687E0,1.1552939E1],"split_indices":[5,6,5,5,5,6,9,5,6,8,6,6,8,6,5,10,0,0,5,6,0,10,6,6,9,5,5,6,2,8,5,0,6,0,0,0,10,6,0,8,0,9,8,7,11,7,11,0,0,0,0,0,0,9,8,9,5,0,0,0,0,0,0,0,0,0,0,0,0,0,0,0,0,0,0,0,0,0,0,0,0,0,0,0,0],"split_type":[0,0,0,0,0,0,0,0,0,0,0,0,0,0,0,0,0,0,0,0,0,0,0,0,0,0,0,0,0,0,0,0,0,0,0,0,0,0,0,0,0,0,0,0,0,0,0,0,0,0,0,0,0,0,0,0,0,0,0,0,0,0,0,0,0,0,0,0,0,0,0,0,0,0,0,0,0,0,0,0,0,0,0,0,0],"sum_hessian":[4.504E3,2.145E3,2.359E3,9.85E2,1.16E3,1.161E3,1.198E3,3.99E2,5.86E2,5.44E2,6.16E2,6.1E2,5.51E2,1.17E2,1.081E3,1.03E2,2.96E2,2.63E2,3.23E2,5.4E2,4E0,3.45E2,2.71E2,2.69E2,3.41E2,5.22E2,2.9E1,7.7E1,4E1,4.82E2,5.99E2,1E2,3E0,1.96E2,1.27E2,2.42E2,2.98E2,3.38E2,7E0,2.61E2,1E1,8E0,2.61E2,1.67E2,1.74E2,2.73E2,2.49E2,1.8E1,1.1E1,4.1E1,3.6E1,2.8E1,1.2E1,4.57E2,2.5E1,4.64E2,1.35E2,2E0,1E0,2.9E2,8E0,1.61E2,1.77E2,2.6E2,1E0,3E0,5E0,2.57E2,4E0,6.7E1,1E2,8.1E1,9.3E1,1.5E2,1.23E2,1.13E2,1.36E2,2.32E2,2.25E2,1.6E1,9E0,2.68E2,1.96E2,1.22E2,1.3E1],"tree_param":{"num_deleted":"0","num_feature":"13","num_nodes":"85","size_leaf_vector":"1"}},{"base_weights":[1.6612993E-1,-9.201853E1,9.243259E1,-1.3710553E2,-4.5426964E1,4.9912952E1,1.4184792E2,-1.594095E2,-1.1182163E2,-6.791149E1,-2.0958889E1,2.4259804E1,7.709544E1,1.317761E2,2.6118857E2,-8.64514E0,-7.2534995E0,-1.2184153E2,-9.9259544E1,-8.104093E1,-5.5559677E1,-3.177445E1,-6.1064184E-1,7.556389E0,3.4937172E1,7.4146126E1,1.3799435E2,1.12911606E2,1.5087944E2,2.0683482E2,3.0314795E2,-6.0115128E0,-9.578588E0,-2.788736E1,-1.0155106E2,-7.947721E1,-8.41433E0,-5.4516838E1,-5.319613E0,-2.9554972E1,-5.191865E0,6.178943E1,-6.445674E0,-4.1138687E1,1.0685696E1,2.6461142E1,4.1859726E1,6.2245064E1,8.497812E1,4.83851E0,8.088703E0,1.1040967E2,9.791782E0,1.461335E2,2.046943E2,1.1345066E1,7.222449E0,1.1237073E1,1.7064365E1,-2.0085344E0,1.7594818E0,-4.9361796E0,-8.507361E0,-4.1366115E0,-3.5680878E0,-3.0664377E0,-2.4270306E0,-1.6870527E0,-1.0384711E0,2.1789215E0,4.2439017E0,-8.026807E0,-2.2974646E-1,-3.3929765E0,-7.892424E-1,2.4279897E-1,7.510597E-1,1.1398565E0,1.5101825E0,1.8753914E0,2.3049395E0,2.816311E0,3.383318E0,3.9565055E0,4.607901E0,4.701493E0,5.886533E0,7.019239E0,8.376655E0,1.7962723E0,1.0424492E1],"categories":[],"categories_nodes":[],"categories_segments":[],"categories_sizes":[],"default_left":[0,0,0,0,0,0,0,0,0,0,0,0,0,0,0,0,0,0,0,0,0,0,0,0,0,0,0,0,0,0,0,0,0,0,0,0,0,0,0,0,0,0,0,0,0,0,0,0,0,0,0,0,0,0,0,0,0,0,0,0,0,0,0,0,0,0,0,0,0,0,0,0,0,0,0,0,0,0,0,0,0,0,0,0,0,0,0,0,0,0,0],"id":19,"left_children":[1,3,5,7,9,11,13,15,17,19,21,23,25,27,29,-1,-1,31,33,35,37,39,41,43,45,47,49,51,53,55,57,-1,-1,59,61,63,-1,65,-1,67,-1,69,71,73,75,77,79,81,83,-1,-1,85,-1,87,89,-1,-1,-1,-1,-1,-1,-1,-1,-1,-1,-1,-1,-1,-1,-1,-1,-1,-1,-1,-1,-1,-1,-1,-1,-1,-1,-1,-1,-1,-1,-1,-1,-1,-1,-1,-1],"loss_changes":[3.8326012E7,4.728692E6,4.724646E6,6.27878E5,6.092465E5,8.4327725E5,1.216842E6,9.2169E4,5.5876E4,8.9233E4,1.17282E5,1.1120381E5,9.537925E4,3.29644E5,1.1975E5,0E0,0E0,1.0224E4,3.723775E4,2.4552E4,1.01559375E4,5.2590875E4,6.812206E4,3.777314E4,2.1247781E4,6.728825E4,9.8328125E3,7.9624E4,9.1403E4,1.479525E4,5.1885E4,0E0,0E0,8.386752E3,2.91695E4,1.3605E3,0E0,9.1138125E3,0E0,1.1766625E4,0E0,3.0286172E3,4.8028484E4,9.090984E3,5.7655195E3,1.6974453E3,2.108125E3,4.9165E3,4.968E3,0E0,0E0,4.601E4,0E0,3.061E4,1.557025E4,0E0,0E0,0E0,0E0,0E0,0E0,0E0,0E0,0E0,0E0,0E0,0E0,0E0,0E0,0E0,0E0,0E0,0E0,0E0,0E0,0E0,0E0,0E0,0E0,0E0,0E0,0E0,0E0,0E0,0E0,0E0,0E0,0E0,0E0,0E0,0E0],"parents":[2147483647,0,0,1,1,2,2,3,3,4,4,5,5,6,6,7,7,8,8,9,9,10,10,11,11,12,12,13,13,14,14,17,17,18,18,19,19,20,20,21,21,22,22,23,23,24,24,25,25,26,26,27,27,28,28,29,29,30,30,33,33,34,34,35,35,37,37,39,39,41,41,42,42,43,43,44,44,45,45,46,46,47,47,48,48,51,51,53,53,54,54],"right_children":[2,4,6,8,10,12,14,16,18,20,22,24,26,28,30,-1,-1,32,34,36,38,40,42,44,46,48,50,52,54,56,58,-1,-1,60,62,64,-1,66,-1,68,-1,70,72,74,76,78,80,82,84,-1,-1,86,-1,88,90,-1,-1,-1,-1,-1,-1,-1,-1,-1,-1,-1,-1,-1,-1,-1,-1,-1,-1,-1,-1,-1,-1,-1,-1,-1,-1,-1,-1,-1,-1,-1,-1,-1,-1,-1,-1],"split_conditions":[6.021205E2,3.60543E2,8.5128674E2,2.903488E2,5.299182E2,7.771502E2,1.8022345E2,1.8232263E2,3.547479E2,4.2205252E2,6.056917E2,6.923702E2,1.1150686E2,9.476219E2,1.2276062E3,-8.64514E0,-7.2534995E0,3.234827E2,2.8677466E2,2.2347517E2,1.3477701E2,1.4336238E2,5.0708484E2,6.312921E2,6.9149396E2,8.1629724E2,7.4342053E2,1.00892786E3,1.1433843E3,2.1E1,9.861189E2,-6.0115128E0,-9.578588E0,2.5388426E2,7.311636E2,4.02933E2,-8.41433E0,4.6104837E2,-5.319613E0,5.8043567E2,-5.191865E0,3.8706302E2,5.369402E2,8.7993463E2,6.6497327E2,6.802913E2,7.545642E2,7.661531E2,8.4119104E2,4.83851E0,8.088703E0,9.202735E2,9.791782E0,1.02032306E3,8.997622E2,1.1345066E1,7.222449E0,1.1237073E1,1.7064365E1,-2.0085344E0,1.7594818E0,-4.9361796E0,-8.507361E0,-4.1366115E0,-3.5680878E0,-3.0664377E0,-2.4270306E0,-1.6870527E0,-1.0384711E0,2.1789215E0,4.2439017E0,-8.026807E0,-2.2974646E-1,-3.3929765E0,-7.892424E-1,2.4279897E-1,7.510597E-1,1.1398565E0,1.5101825E0,1.8753914E0,2.3049395E0,2.816311E0,3.383318E0,3.9565055E0,4.607901E0,4.701493E0,5.886533E0,7.019239E0,8.376655E0,1.7962723E0,1.0424492E1],"split_indices":[5,5,5,6,6,6,8,5,6,5,6,6,8,5,6,0,0,12,7,8,8,10,7,6,7,11,5,9,5,1,7,0,0,5,9,5,0,9,0,6,0,7,5,11,6,9,6,5,9,0,0,6,0,9,6,0,0,0,0,0,0,0,0,0,0,0,0,0,0,0,0,0,0,0,0,0,0,0,0,0,0,0,0,0,0,0,0,0,0,0,0],"split_type":[0,0,0,0,0,0,0,0,0,0,0,0,0,0,0,0,0,0,0,0,0,0,0,0,0,0,0,0,0,0,0,0,0,0,0,0,0,0,0,0,0,0,0,0,0,0,0,0,0,0,0,0,0,0,0,0,0,0,0,0,0,0,0,0,0,0,0,0,0,0,0,0,0,0,0,0,0,0,0,0,0,0,0,0,0,0,0,0,0,0,0],"sum_hessian":[4.504E3,2.253E3,2.251E3,1.144E3,1.109E3,1.211E3,1.04E3,6.05E2,5.39E2,5.77E2,5.32E2,6.24E2,5.87E2,9.61E2,7.9E1,3.06E2,2.99E2,2.95E2,2.44E2,2.77E2,3E2,3.47E2,1.85E2,2.44E2,3.8E2,5.62E2,2.5E1,4.87E2,4.74E2,3.7E1,4.2E1,2.91E2,4E0,8E0,2.36E2,2.74E2,3E0,2.96E2,4E0,3.38E2,9E0,1.5E1,1.7E2,1.4E1,2.3E2,1.73E2,2.07E2,2.71E2,2.91E2,1.1E1,1.4E1,4.75E2,1.2E1,4.39E2,3.5E1,2.6E1,1.1E1,1.6E1,2.6E1,7E0,1E0,2.29E2,7E0,1.89E2,8.5E1,1.34E2,1.62E2,2.27E2,1.11E2,1E1,5E0,1E0,1.69E2,6E0,8E0,9.9E1,1.31E2,9.1E1,8.2E1,1.07E2,1E2,1.35E2,1.36E2,1.67E2,1.24E2,1.51E2,3.24E2,3.52E2,8.7E1,1E0,3.4E1],"tree_param":{"num_deleted":"0","num_feature":"13","num_nodes":"91","size_leaf_vector":"1"}},{"base_weights":[1.6766924E-1,-8.618042E1,8.916177E1,-1.3028972E2,-4.191855E1,4.8748604E1,1.3484665E2,-1.528184E2,-1.07691154E2,-6.3859898E1,-1.7978836E1,2.5669262E1,7.482816E1,2.2553761E2,1.2278536E2,-8.291648E0,-7.025457E0,-1.1953126E2,-9.636207E1,-7.558858E1,-5.0708714E1,-2.9754728E1,-1.6453873E-2,1.22532215E1,3.778393E1,7.1891266E1,1.3159186E2,1.5792085E2,2.5948676E2,1.0664399E2,1.4034161E2,-1.1675396E2,-9.91618E0,1.7154953E0,-9.6915695E1,-7.4230064E1,-8.098792E0,-4.9609257E1,-5.1068287E0,-9.1276474E1,-2.7154299E1,5.9101402E1,-4.675908E0,1.4394539E1,-4.5118942E1,3.1140171E1,2.1944811E0,6.2291824E1,8.2397095E1,4.6167455E0,7.711231E0,3.2861195E0,8.040768E0,9.392638E0,2.7903998E2,1.0421044E2,9.339853E0,1.3307202E2,1.5654132E2,-5.93205E0,-6.975294E-1,-4.8760495E0,-1.4023117E0,-3.9308698E0,-3.3363698E0,-2.7025783E0,-2.1706526E0,-6.0516105E0,-3.2301838E0,-1.5724764E0,-1.0073038E0,3.3954632E0,1.3071125E0,-7.826137E0,-1.5746632E-1,4.4438273E-1,1.0305315E0,7.45639E-1,-2.6306698E0,1.369362E0,1.6697968E0,2.7866466E0,3.3763013E0,3.9942956E0,4.873971E0,1.1670474E1,1.6142653E1,4.6598635E0,5.769651E0,1.693927E0,6.900884E0,8.40934E0,6.0063434E0],"categories":[],"categories_nodes":[],"categories_segments":[],"categories_sizes":[],"default_left":[0,0,0,0,0,0,0,0,0,0,0,0,0,0,0,0,0,0,0,0,0,0,0,0,0,0,0,0,0,0,0,0,0,0,0,0,0,0,0,0,0,0,0,0,0,0,0,0,0,0,0,0,0,0,0,0,0,0,0,0,0,0,0,0,0,0,0,0,0,0,0,0,0,0,0,0,0,0,0,0,0,0,0,0,0,0,0,0,0,0,0,0,0],"id":20,"left_children":[1,3,5,7,9,11,13,15,17,19,21,23,25,27,29,-1,-1,31,33,35,37,39,41,43,45,47,49,51,53,55,57,59,-1,-1,61,63,-1,65,-1,67,69,71,73,75,77,79,-1,81,83,-1,-1,-1,-1,-1,85,87,-1,89,91,-1,-1,-1,-1,-1,-1,-1,-1,-1,-1,-1,-1,-1,-1,-1,-1,-1,-1,-1,-1,-1,-1,-1,-1,-1,-1,-1,-1,-1,-1,-1,-1,-1,-1],"loss_changes":[3.4626224E7,4.459588E6,4.0903E6,5.6648E5,5.992351E5,7.0771825E5,1.111006E6,6.8173E4,6.56105E4,8.80975E4,1.1591416E5,1.0144391E5,8.273E4,2.36781E5,2.46028E5,0E0,0E0,3.7461E4,2.4956E4,2.470975E4,1.09911875E4,5.0475844E4,6.0325973E4,3.738221E4,1.19790625E4,4.8116E4,8.8605E3,9.06125E2,5.8235E4,7.4941E4,3.075E4,5.07235E4,0E0,0E0,9.68725E3,4.958125E3,0E0,5.360625E3,0E0,2.4985625E3,8.968922E3,2.8694922E3,4.6563805E4,9.709668E3,5.7335645E3,4.4835938E2,0E0,5.84925E3,1.643375E3,0E0,0E0,0E0,0E0,0E0,4.45955E4,4.7375E4,0E0,1.469125E5,3.49245E4,0E0,0E0,0E0,0E0,0E0,0E0,0E0,0E0,0E0,0E0,0E0,0E0,0E0,0E0,0E0,0E0,0E0,0E0,0E0,0E0,0E0,0E0,0E0,0E0,0E0,0E0,0E0,0E0,0E0,0E0,0E0,0E0,0E0,0E0],"parents":[2147483647,0,0,1,1,2,2,3,3,4,4,5,5,6,6,7,7,8,8,9,9,10,10,11,11,12,12,13,13,14,14,17,17,18,18,19,19,20,20,21,21,22,22,23,23,24,24,25,25,26,26,27,27,28,28,29,29,30,30,31,31,34,34,35,35,37,37,39,39,40,40,41,41,42,42,43,43,44,44,45,45,47,47,48,48,54,54,55,55,57,57,58,58],"right_children":[2,4,6,8,10,12,14,16,18,20,22,24,26,28,30,-1,-1,32,34,36,38,40,42,44,46,48,50,52,54,56,58,60,-1,-1,62,64,-1,66,-1,68,70,72,74,76,78,80,-1,82,84,-1,-1,-1,-1,-1,86,88,-1,90,92,-1,-1,-1,-1,-1,-1,-1,-1,-1,-1,-1,-1,-1,-1,-1,-1,-1,-1,-1,-1,-1,-1,-1,